#ifndef _PARAMETER_H_
#define _PARAMETER_H_

float op=-1.73548;
float ep=-0.225972;
float w1[41][144]=
{
	{  1.06662e-01,  1.99059e-01,  2.14409e-01, -5.12524e-02,  2.17211e-01, -7.67859e-03, -5.30849e-02,  7.31492e-02,  9.10960e-02, -2.20452e-02, -9.71622e-06,  5.31046e-02,  4.84452e-02,  8.26852e-03,  1.26471e-01,  1.93949e-01, -1.77059e-02,  1.68708e-01,  1.29588e-01,  1.23363e-02,  1.97331e-01, -2.66904e-01,  9.00948e-02,  2.68692e-03, -1.01298e-01, -5.23155e-02, -7.72874e-02,  1.17937e-01,  1.72329e-01,  2.94795e-01,  4.35887e-02,  6.15386e-02, -3.00213e-01,  2.66412e-02, -7.31770e-02,  1.70899e-01, -3.17848e-02,  1.68105e-02, -7.41035e-02, -1.46864e-01,  1.80810e-01,  1.76133e-01, -1.77077e-01,  7.45863e-01,  9.07913e-02,  4.83991e-02,  4.63857e-02,  2.11116e-01, -1.13506e-01,  1.56203e-02,  1.79493e-01, -6.61893e-02,  2.32598e-01,  4.66991e-02,  2.58267e-02,  1.03542e-01,  2.29044e-01,  1.32184e-01,  1.87141e-01,  5.92398e-02, -5.58393e-02,  2.01772e-01, -6.31948e-02, -1.26672e-01, -1.06576e-01,  7.29438e-02,  2.13592e-02,  1.29174e-01,  1.25804e-01,  1.05474e-01,  1.30999e-01,  9.13897e-02,  8.76490e-01, -1.32891e-01,  4.04957e-02,  9.15265e-02,  4.86739e-02, -1.17523e-02,  1.55521e-01,  9.53883e-02,  3.72489e-01,  2.53169e-01, -1.92066e-01, -9.43791e-02,  1.16422e-01,  8.66774e-02,  1.09156e-01, -2.34933e-01, -7.88427e-02,  2.85180e-01,  9.74837e-02,  1.31333e-01,  5.27022e-03, -1.47630e-01, -4.81624e-02, -1.98777e-01, -2.61528e-02,  3.92368e-01,  1.23311e-01, -3.79965e-02,  5.75284e-02, -1.01903e-01,  4.12492e-02,  6.41449e-01,  6.89800e-02, -8.57869e-02,  1.08228e-01, -1.28889e-02, -9.81572e-02,  1.23998e-01,  4.39039e-02,  6.77534e-01, -8.16915e-02, -5.17057e-02,  1.15562e-01, -7.91075e-02,  7.51668e-03,  1.41771e-02, -4.32862e-02,  3.20765e-02,  1.54375e-01,  1.39963e-01,  3.42269e-01,  2.51407e-01, -6.74777e-03,  1.78040e-01,  1.25342e-01,  1.39552e-01, -3.16861e-02,  2.62563e-01,  8.34896e-02,  2.61694e-01,  1.33613e-01, -1.85278e-02,  2.20284e-01, -3.83968e-02,  4.08282e-02,  6.61684e-01,  1.66894e-01, -4.46442e-03,  3.75501e-01,  2.21318e-01, -1.28578e-02,  2.03888e-02},
	{  4.08984e-02, -1.81829e-01, -5.25577e-03,  5.04639e-02, -3.51309e-03,  1.51664e-01,  1.56655e-03, -8.76137e-02,  1.45386e-01, -4.58341e-03,  1.57017e-01, -1.53851e-01,  1.19223e-01,  1.68760e-01,  2.86963e-02,  3.87202e-01,  1.08081e-01, -6.99571e-02,  7.36800e-04,  2.79108e-02,  4.63946e-02,  1.29215e-01,  9.16630e-03, -1.29641e-01, -9.90001e-02,  7.75191e-02,  3.46511e-01, -1.40339e-01,  9.97083e-02,  1.06961e-01, -4.14617e-02, -7.59206e-02,  7.87161e-03, -3.55044e-02,  1.62908e-01, -1.24804e-01,  2.81205e-02,  6.28567e-02,  1.63242e-01,  6.64967e-02,  1.53325e-01,  1.13391e-01,  1.49699e-01, -1.55791e-01,  1.49488e-01, -1.31562e-01,  4.00893e-01,  3.40365e-01,  3.72892e-02, -5.81971e-02,  7.01961e-01, -1.29561e-01, -7.24479e-02,  1.81521e-01,  8.21792e-02, -9.23341e-03,  3.30071e-03,  6.61405e-02, -8.09615e-02,  2.51963e-01, -1.02267e-01,  1.23091e-01,  5.44602e-02,  4.01360e-02, -6.02553e-02, -8.61675e-02,  1.36923e-02,  1.33534e-02,  1.11656e-01,  1.33340e-01,  1.42618e-01, -3.44965e-02,  9.94143e-02,  1.23993e-01,  4.51993e-02, -3.52143e-02,  5.70868e-02,  1.60785e-01,  8.19170e-02,  1.79826e-02,  1.43095e-02,  1.08658e-01, -6.15104e-02,  2.91896e-01,  1.59597e-01,  1.22910e-01,  5.97387e-01,  2.25215e-01,  7.58092e-03, -5.89562e-02, -6.38858e-02,  4.03450e-01, -5.02874e-02, -9.46653e-02,  2.72718e-01, -6.51666e-02,  8.99240e-03,  7.67090e-02,  8.13359e-02, -6.34388e-02,  1.19516e-02,  1.22299e-01,  1.88595e-01,  3.33882e-01, -1.41777e-03, -2.49225e-02,  5.59286e-02,  5.62493e-02, -4.26714e-02, -9.20948e-02, -1.24670e-02,  2.27957e-02,  3.63669e-02,  1.57364e-01, -6.50684e-03,  2.01197e-02,  1.23604e-02, -5.07667e-02,  1.67537e-01, -4.42365e-02,  1.11538e-01, -8.46695e-04,  8.21174e-02, -5.99822e-03,  1.08955e-01, -1.51857e-01,  3.60869e-02, -3.60544e-02,  2.71905e-01,  2.74894e-02,  3.22203e-02, -1.04230e-01,  6.66073e-02,  2.95525e-01, -4.45127e-02, -1.70241e-01,  1.48498e-02,  7.55057e-02,  1.33881e-01, -1.07102e-01, -2.13373e-02, -1.20801e-02, -4.96604e-02, -1.79683e-01},
	{  6.69297e-02, -2.64603e-02, -6.94162e-02,  5.42340e-01, -8.05395e-03,  4.97973e-02,  8.55276e-03,  6.91780e-02,  1.57283e-01,  7.64429e-02, -2.05832e-01, -2.98039e-02,  3.39121e-02, -4.37642e-02, -8.42978e-02,  2.39962e-01, -1.04728e-01,  1.63747e-01, -1.05874e-01,  3.75820e-01,  4.72420e-02, -5.64505e-02,  6.50666e-01,  9.55771e-02,  1.78023e-01, -1.22787e-01, -6.73092e-02,  4.37957e-02, -9.68009e-02,  1.63709e-02,  1.49094e-01,  5.48441e-02, -2.17388e-02,  7.63586e-02, -3.37030e-02,  6.45176e-02, -1.68061e-01,  7.65820e-02,  8.52717e-02,  5.26203e-02, -4.77946e-02,  3.38114e-02,  1.10870e-02,  1.24593e-01,  4.22024e-02,  8.21204e-02, -2.53214e-02,  5.09019e-03,  2.21472e-02,  6.09512e-02,  3.49093e-02, -1.40314e-01, -1.11430e-01, -2.76495e-02,  3.34905e-02, -8.90016e-02,  1.20542e-01,  4.31554e-02, -7.65869e-02,  9.57745e-02, -1.37168e-01,  9.55790e-02,  7.09620e-02,  1.02970e-01,  5.74145e-03, -4.65528e-02,  5.17612e-02, -4.63272e-02,  1.51866e-01, -1.48341e-01, -2.32029e-02, -2.90169e-02,  8.88650e-02, -3.47802e-02,  3.55556e-02, -5.75287e-02, -4.17651e-02,  1.95894e-02,  1.56023e-01, -2.11231e-02,  7.05357e-02,  4.50999e-02,  1.04716e-01,  2.68531e-01, -6.81616e-02,  1.42700e-01, -2.18992e-02, -1.33754e-01,  2.39296e-02,  2.04764e-02, -1.14170e-01,  3.72163e-03,  3.21828e-02,  1.66748e-01, -5.95098e-02,  8.79573e-02,  2.90461e-02, -1.29493e-01, -1.14092e-01,  6.00934e-02, -2.47154e-02,  1.69706e-01,  1.47132e-01, -9.87106e-02,  8.69214e-02, -1.11385e-01, -2.97270e-02,  1.10222e-02, -2.10011e-01, -2.72196e-01,  2.57157e-03, -3.12358e-03,  7.15725e-01,  7.22597e-02,  7.40991e-02,  7.57651e-02,  3.92318e-02,  1.19148e-01,  9.68956e-02,  1.17770e-01,  1.00230e-01,  7.27162e-02, -3.55714e-02, -1.16818e-01,  6.63963e-02, -1.20520e-01,  1.07715e-01,  4.73923e-02,  5.01031e-02,  1.03234e-01,  1.31597e-01, -4.55035e-02, -2.83310e-02,  4.47325e-02,  1.75888e-01, -2.23566e-02, -1.26858e-02, -6.19088e-03,  6.90660e-02,  1.95709e-03, -7.90764e-03,  8.74893e-02, -2.60200e-02, -9.40373e-03},
	{  4.84419e-01,  6.27453e-02, -2.26295e-02,  1.49075e-01,  9.05579e-02, -6.21450e-02, -8.65062e-02,  9.60214e-02,  3.97953e-02, -8.25872e-02,  1.15403e-02,  6.80433e-02,  6.57480e-02, -1.87148e-01,  1.01567e-01,  1.53948e-01,  1.22460e-01, -1.19701e-01,  2.06444e-02,  3.52213e-03,  6.77113e-03, -1.43363e-01, -6.25641e-03,  1.13716e-02,  1.41472e-02,  7.26435e-02,  1.59055e-02,  1.00378e+00, -9.28560e-02,  1.34025e-02,  1.26674e-01,  5.99316e-02,  3.89296e-02, -5.01956e-02,  1.20093e-02,  3.97143e-02,  2.10071e-02,  3.40910e-01,  9.71498e-02,  3.08767e-02, -1.28022e-01,  3.80015e-02,  5.20264e-02,  1.96351e-02,  3.84032e-02,  8.87082e-02, -7.60595e-02,  9.06005e-02,  6.53008e-02,  3.61502e-02, -2.22309e-02,  2.63895e-02,  1.92143e-02,  9.66184e-02,  1.69908e-03, -4.87643e-02,  3.49612e-02,  2.15218e-01, -1.71499e-01, -3.43206e-02,  2.64130e-01,  1.47628e-01,  9.86730e-02, -1.33729e-01,  9.14781e-02,  1.51049e-01,  1.14603e-01,  4.12837e-02,  9.76657e-02,  1.44390e-01,  3.73147e-01,  7.90966e-02,  5.62742e-02, -1.08530e-01, -5.17224e-02, -1.93976e-01,  5.78269e-01,  5.21085e-02,  6.86106e-01, -8.74938e-02,  3.89900e-03,  7.79586e-02,  1.40609e-01,  1.40271e-01,  1.07174e-01,  8.37270e-02,  2.05039e-02, -2.62018e-02,  8.80497e-02, -6.37043e-02, -2.60863e-02,  4.02761e-03,  1.73074e-01,  1.03752e-01, -1.22175e-01,  1.76925e-02, -2.87143e-02, -5.98433e-02,  4.14662e-01, -1.50468e-02, -1.21203e-01, -1.92098e-01,  8.62873e-02, -1.98809e-02, -1.39900e-01, -1.51993e-02, -5.04781e-02,  3.15957e-03,  9.73588e-02, -9.32727e-02,  1.04187e-01,  5.74867e-02,  1.25028e-01,  9.95099e-02,  1.39274e-01,  4.91409e-02, -9.84021e-03,  2.48221e-02, -4.18115e-02,  1.03604e-01,  1.35909e-01, -5.57694e-02,  1.98677e-02, -7.77596e-02,  5.14915e-02, -1.38319e-01, -6.41588e-02,  1.77861e-01, -9.21212e-02, -3.75725e-02,  1.59153e-01, -1.19934e-01, -6.86924e-02, -1.45187e-01, -3.40111e-02, -1.76503e-01,  4.14261e-02,  1.04257e-01,  8.44797e-02,  3.42484e-02,  2.09359e-01,  1.33185e-02, -4.16560e-02,  1.69600e-01},
	{ -1.72033e-02,  6.07482e-01, -4.06938e-02, -1.53047e-02, -1.87126e-01,  1.03956e-01,  2.76106e-02,  6.86314e-02,  7.83423e-04,  6.86246e-02, -1.00320e-01, -8.05982e-03, -6.66688e-02,  4.34425e-02,  2.42955e-02, -7.81180e-02, -1.57508e-05,  6.37167e-02,  1.27867e-01, -4.59358e-03,  1.27858e-01, -3.98714e-02, -3.64960e-02, -5.65445e-02, -3.40515e-02,  5.09709e-02,  7.44835e-01, -8.54196e-02,  6.52320e-02,  6.37174e-03,  3.49750e-02,  8.71423e-03, -7.26966e-02,  8.57300e-02,  9.53131e-02, -1.81519e-01,  1.72368e-02, -9.98810e-02,  7.10983e-02, -1.84577e-02, -2.17817e-02, -1.52827e-02,  3.90535e-02, -3.29052e-02,  4.56397e-02,  1.28266e-01, -8.58602e-02, -1.73152e-01,  7.40403e-02, -1.44254e-02, -7.01057e-02, -9.19974e-02, -7.81000e-02,  8.89257e-03,  2.74288e-02, -1.38114e-01, -1.83437e-01, -8.28397e-03, -1.28642e-01, -1.18434e-01,  5.64983e-02, -8.76555e-02,  3.16359e-02, -5.79076e-02, -2.63663e-02, -4.70027e-03,  1.85703e-01,  2.38969e-03, -2.32120e-01,  2.59371e-02,  7.44560e-02, -4.11979e-02,  3.21149e-02,  7.90773e-02, -6.13035e-02, -9.92349e-02,  1.53239e-02,  1.46097e-01,  2.24704e-02, -1.64158e-01,  2.75383e-02, -1.12005e-01, -6.94124e-02, -4.49254e-03, -9.50542e-02, -9.93680e-02,  8.16860e-02,  1.68750e-01, -5.09058e-03,  5.39341e-02, -2.02021e-01, -9.53025e-03,  1.69353e-02, -2.77967e-02,  3.16887e-02,  5.97425e-03, -1.57733e-01, -1.63806e-01,  6.84405e-02, -9.37029e-02, -8.73350e-02, -5.79582e-02, -7.16360e-02, -1.40170e-01,  4.28385e-02,  8.07280e-02,  3.94501e-03,  4.82407e-02,  1.30414e-02, -1.52999e-01, -1.45937e-01, -1.32401e-01,  5.00940e-02, -8.35901e-02, -9.00514e-02,  3.31608e-02, -3.15284e-02, -2.78833e-02,  4.83859e-02,  6.18223e-02, -2.19269e-01,  1.62645e-02,  2.45101e-01,  1.47924e-01, -1.32425e-01,  5.56725e-02,  5.58725e-02,  1.05324e-01,  8.58544e-02,  6.14741e-01, -6.41097e-02, -6.35529e-02,  2.39340e-02,  6.20758e-02,  1.60911e-02,  2.21969e-01, -7.81957e-02, -3.48787e-02,  5.34904e-02,  9.63000e-02, -5.13116e-02, -2.83915e-02, -2.00935e-01, -1.41485e-01},
	{  1.42400e-01, -1.71464e-01,  9.79250e-02, -1.49436e-02, -9.43902e-03,  3.17103e-02, -2.87268e-03, -1.25833e-01, -7.15141e-02, -1.96150e-01,  3.71981e-02,  9.38027e-03,  1.04440e-01, -1.90121e-02,  5.10458e-02, -6.65584e-02,  1.32044e-01, -9.31222e-03,  1.61037e-01, -7.87047e-02,  5.96740e-01, -3.68333e-02, -3.12140e-02,  4.70269e-02, -8.01951e-02, -4.69599e-03,  2.48427e-01,  3.70984e-02, -6.29535e-02,  2.00668e-02,  2.28622e-01,  1.76027e-01, -1.60632e-01, -5.88572e-02,  7.74879e-02,  8.26731e-01, -2.42527e-02,  1.41263e-01,  1.38900e-01,  1.72635e-02, -4.84234e-02, -2.33021e-02,  1.30334e-01,  2.93407e-03, -5.53574e-02, -2.64968e-02,  5.21865e-01, -3.07456e-02, -1.75918e-01, -1.42586e-02, -4.34943e-02, -5.78409e-03,  2.18194e-02,  1.11850e-01, -3.43520e-02,  1.22311e-01, -5.98239e-02, -1.49922e-01,  1.06027e-01,  1.20969e-01,  1.61571e-01, -2.45401e-02,  6.42319e-02,  4.41736e-02,  6.62527e-02,  4.55530e-02, -3.94966e-02,  1.69752e-02,  1.42153e-01,  3.09601e-01, -2.08642e-02,  3.89016e-02, -6.24824e-02, -6.88288e-02, -5.20414e-03,  9.32168e-02, -1.19343e-01,  5.15259e-02,  3.90043e-02,  1.53132e-02, -3.78459e-02,  1.34943e-01,  1.29622e-01,  2.03411e-01,  4.69356e-02,  3.42380e-02, -1.09755e-01, -9.64372e-03, -6.07590e-02,  1.14024e-01,  1.21955e-01, -1.27865e-01,  1.04467e-01, -1.43994e-02,  1.21019e-01,  1.70539e-01, -6.18268e-02, -2.34628e-03,  5.95449e-02,  1.09880e-01,  6.73427e-02,  4.38460e-02, -2.65084e-02,  8.78712e-02, -6.85976e-02,  3.63826e-02, -1.02188e-01,  1.43271e-01,  8.68367e-02,  3.92068e-01,  1.45202e-02, -8.97190e-02, -2.48157e-02,  4.94381e-02,  9.14497e-02, -6.40004e-02,  5.34630e-02, -3.72874e-02, -4.35001e-02, -1.08344e-01,  1.69666e-02, -1.23536e-01,  1.22440e-01, -7.52463e-02,  8.26681e-02,  3.91470e-02,  5.95695e-03,  9.32736e-02, -1.51629e-01,  7.98510e-02,  3.28834e-02, -7.17904e-02, -1.72682e-02,  1.10605e-01, -1.56580e-01, -3.03773e-02, -6.63651e-02,  3.93980e-02, -5.83237e-02,  1.69031e-01,  8.25483e-02,  3.24807e-02, -5.19167e-03, -2.50805e-02},
	{  7.12280e-02, -9.22338e-03,  4.16677e-02,  1.78525e-02,  1.54947e-02, -7.43299e-02, -6.03159e-02, -5.69395e-02, -3.21226e-02, -1.70188e-02, -4.53217e-02, -3.66803e-02, -3.15703e-02, -1.17533e-01, -2.97090e-02,  1.48974e-02,  1.94047e-01, -1.14747e-01,  4.21465e-02,  7.53258e-02, -1.83498e-02,  5.27204e-02, -6.74119e-02,  6.02086e-02, -7.89398e-02,  7.26821e-02,  1.75350e-01, -5.31536e-02,  7.15390e-03, -1.74323e-02,  3.78902e-02,  9.33991e-04, -3.14586e-02, -4.50606e-02, -6.32741e-02,  5.19325e-02, -1.76161e-01,  1.40653e-01,  1.58707e-01, -1.07089e-01, -1.11158e-01, -5.12070e-02,  3.64314e-02,  1.70705e-01,  3.02220e-03, -4.68808e-02, -1.23359e-01,  2.39712e-01,  1.56529e-01, -9.08844e-02, -5.86955e-02,  1.19373e-02,  6.85152e-02, -4.75111e-02,  1.45586e-01,  7.63261e-02, -8.97374e-02,  6.05407e-02, -9.23701e-02,  1.78291e-01,  2.55527e-01,  1.19951e-01, -1.07526e-01,  7.83349e-02,  1.71987e-02, -2.05539e-02,  2.09072e-02,  7.85587e-02,  2.23872e-01,  2.87358e-01, -1.08750e-01,  1.18662e-01, -1.30620e-03, -1.31032e-01,  7.57456e-02, -1.09930e-01,  1.26400e-01,  1.88064e-03,  7.43616e-03, -1.23491e-01, -3.48671e-02,  1.82656e-01,  1.97995e-02,  2.86642e-02,  1.31493e-01,  1.30160e-01,  3.05978e-02, -6.45821e-02, -1.51380e-02,  2.58216e-02,  2.46200e-01, -4.51623e-02, -5.38569e-02,  1.16988e-01,  1.24158e-01, -6.59751e-03,  4.30911e-02,  1.07784e-01,  2.00291e-01,  3.85461e-02,  3.11323e-02,  2.00631e-01,  1.53244e-02,  1.95411e-01, -1.52426e-01,  5.07093e-02,  2.06736e-01, -2.82002e-02,  1.70619e-01, -1.47118e-01,  7.48729e-02, -3.85167e-02,  6.35255e-02, -2.08302e-02,  2.60276e-01,  1.18382e-01,  5.87527e-01,  7.47304e-01, -2.39230e-02,  1.11677e-01, -1.45475e-03, -1.72547e-02,  4.10744e-02, -3.49732e-02,  5.83100e-02, -4.01977e-02,  6.24933e-02,  1.47451e-01,  1.68648e-01,  3.81310e-02,  3.01828e-01, -1.08751e-01,  1.01520e+00,  1.29690e-01,  2.02817e-02, -9.27872e-02,  3.92239e-02, -6.94101e-02,  1.91875e-01,  5.15997e-01,  7.77538e-02,  3.33176e-02,  1.09237e-01, -1.50306e-02},
	{  1.45759e-01,  2.73516e-01,  1.82468e-02, -2.51028e-02,  2.27199e-01, -9.53072e-03,  1.19239e-01,  2.35723e-01,  1.76693e-01,  1.29490e-01, -1.01067e-01, -8.24992e-03, -5.30764e-02, -9.71143e-02,  2.47463e-02,  1.09367e-01, -1.96137e-01,  3.74447e-02,  3.33621e-02, -1.81153e-01,  1.21985e-01,  6.57998e-02,  1.32027e-01,  8.83093e-02,  5.67054e-02, -4.02137e-02, -1.64161e-01, -1.96838e-02, -3.55706e-02,  2.39235e-01,  7.34526e-02,  6.71724e-01, -3.58650e-02,  7.03139e-01,  2.10576e-01,  1.63850e-02,  1.93975e-01, -3.71180e-03, -4.45002e-04, -4.69384e-02,  6.50656e-02,  2.60665e-01, -9.87283e-02,  5.03354e-02,  1.23570e-01,  7.90757e-02, -4.14627e-03,  7.18260e-02, -1.16902e-01,  8.91640e-02, -1.43056e-02, -5.91405e-02, -2.05975e-02,  6.98014e-02, -1.57042e-01,  7.64420e-02, -1.50152e-03,  1.09608e-01, -4.40608e-03,  7.72811e-02,  2.36693e-01, -1.27893e-02,  1.97022e-01, -2.60312e-03, -7.77481e-02,  7.85837e-02, -5.59795e-02, -1.28370e-01,  1.99911e-01, -1.97503e-01,  2.67057e-01,  2.41287e-02, -2.30020e-02, -9.42267e-02,  5.84146e-01, -6.21257e-02, -8.62977e-02, -9.97918e-02,  1.50597e-02,  7.41271e-01,  1.36048e-01, -2.24302e-01, -1.25381e-01, -5.94848e-02, -1.38467e-02,  6.05472e-02,  5.57557e-02, -2.58420e-01,  2.13864e-01,  1.16613e-01,  7.37175e-03,  2.86573e-03, -2.70657e-02, -7.44726e-04,  3.47434e-02, -3.26152e-02,  7.96342e-01,  6.18297e-01, -2.70785e-02, -5.46223e-02, -8.68156e-02,  4.64889e-02,  1.17382e-02,  9.02362e-02, -7.10531e-02,  4.79050e-02,  1.17595e-01,  7.87198e-02,  2.50171e-01, -6.39817e-02,  8.36092e-02, -4.76082e-02, -1.80745e-01, -3.75864e-02,  1.97156e-01, -1.34778e-02,  8.86657e-02,  6.00151e-02,  1.10604e-01, -7.19053e-02,  5.48862e-02,  1.09720e-01,  1.77689e-02,  1.22474e-01, -8.47036e-02,  1.83181e-03,  7.87074e-02,  1.73915e-01,  9.84309e-02,  4.36010e-03,  6.82609e-02,  8.81814e-02,  3.78982e-02,  8.13511e-02,  3.41313e-02,  1.84548e-01,  8.13982e-02, -1.06495e-02,  3.82924e-01, -1.56184e-01,  8.58317e-02,  1.12844e-01, -9.31754e-02, -8.89580e-03},
	{  4.30856e-02,  1.73061e-01, -3.48234e-02,  5.88688e-02,  6.20747e-03, -2.16585e-02, -1.48401e-02, -7.88878e-02,  1.01806e-02, -3.75948e-02,  7.16321e-02,  4.51129e-02, -3.07415e-02, -1.61796e-02,  1.34939e-02,  9.39756e-02,  4.66800e-02, -3.28026e-02, -1.70497e-02,  2.99984e-01,  7.37191e-02,  8.88818e-03, -1.00475e-01, -6.82619e-02,  1.42728e-02, -1.81963e-02,  2.08882e-01, -7.45453e-02,  3.77785e-02,  2.32790e-02, -9.74874e-02,  7.45274e-02,  1.28998e-01,  4.56130e-02,  4.70665e-02, -1.52248e-01,  2.44717e-03, -1.25942e-02,  1.41048e-01, -2.52870e-02,  2.07462e-02,  2.95484e-02,  9.77104e-02,  3.41615e-02, -1.29627e-02, -2.01953e-01,  5.85964e-02,  1.09638e-01,  1.60654e-01, -6.83621e-04, -1.20356e-01, -8.29358e-02,  2.89305e-02, -1.08449e-01, -7.27067e-02, -1.99421e-01,  5.55956e-02,  1.83046e-02,  2.12423e-02,  1.18428e-01, -6.64203e-02, -8.28892e-02,  1.32793e-01,  4.98966e-03,  8.65816e-02,  6.05801e-01,  1.82161e-02,  1.29338e-02,  1.07005e-02, -7.61334e-03, -7.39729e-02,  2.97516e-02,  1.02761e-01,  1.36665e-01,  4.48455e-02,  2.88568e-02, -1.25924e-01,  4.69369e-02,  9.21077e-02, -4.69654e-02,  4.93085e-02,  6.70112e-02,  1.35059e-01, -1.33212e-01,  9.04298e-02,  5.76718e-02, -4.54671e-02,  1.42911e-02,  1.99977e-01, -1.26184e-01, -2.78367e-02, -1.25102e-01, -7.79586e-02,  1.12262e-01, -6.41795e-02, -5.48028e-02, -3.03313e-02, -8.00577e-02,  8.02432e-02,  3.32615e-02,  3.18144e-01, -4.71691e-02, -6.33571e-02, -2.24632e-02,  4.29597e-02,  1.81712e-02,  9.23920e-02, -5.70822e-02, -1.27757e-01, -2.60731e-03, -1.52625e-02,  1.92224e-01, -1.65964e-01,  8.02189e-02,  1.77168e-01, -1.42198e-01,  1.90779e-02, -8.92860e-02,  1.56804e-02, -1.88043e-01,  1.44098e-01,  5.46245e-02, -4.17433e-02,  6.90897e-02,  1.44554e-03,  2.30013e-02,  7.40002e-02,  1.58495e-01, -2.60485e-02,  7.84325e-02, -1.04728e-01,  5.59870e-01, -1.41327e-02,  1.60594e-01, -1.37815e-01, -3.77971e-02,  4.23072e-02, -1.13018e-01, -5.12157e-02, -1.72972e-01, -8.85379e-02, -1.10303e-01,  3.64937e-02,  5.29119e-01},
	{ -7.21021e-02,  1.32588e-01,  8.19290e-02,  1.02499e-01,  1.59159e-01,  7.63025e-02,  1.16953e-01, -1.32739e-01,  1.26131e-01,  6.64992e-03,  3.78476e-02,  1.81652e-01,  4.01553e-03,  1.39342e-01,  1.58481e-02,  5.95541e-02,  5.05610e-01,  1.15078e-01,  3.07682e-01,  7.89216e-02,  1.48030e-01,  7.72901e-03,  1.04422e-01, -1.01034e-01,  3.74782e-02,  8.17139e-02,  2.84360e-03,  2.25579e-01,  4.77274e-02,  7.96809e-02,  7.30118e-02, -1.31297e-01,  1.35924e-01,  5.53915e-02, -6.06488e-02,  8.53360e-02,  7.23011e-03, -3.42951e-03,  1.37046e-01, -1.22358e-01,  2.16458e-02, -9.43567e-02, -1.09883e-01,  5.64897e-02,  9.00060e-02, -2.96660e-02, -1.02497e-02,  1.45463e-01,  9.43327e-02,  6.61955e-04,  2.05970e-02, -1.99227e-02,  3.33687e-02,  1.93570e-02, -2.37016e-02,  9.94254e-02,  6.73974e-02, -2.17034e-01,  1.81724e-01,  2.77411e-01, -5.75693e-02,  8.12687e-02, -2.72760e-02, -6.30318e-02,  2.66563e-02, -4.22407e-02, -2.68357e-02,  7.05798e-03, -7.57787e-02,  4.82889e-02,  9.18843e-02, -6.31844e-02, -1.15676e-01,  1.56251e-01,  2.75033e-02,  6.24569e-02, -3.05939e-03,  1.48483e-01,  1.36143e-01,  2.10035e-01,  5.81673e-02,  1.99115e-01,  2.78160e-01,  3.19374e-02,  5.17901e-02, -2.50776e-01, -4.57370e-02,  1.12478e-01,  7.38639e-01,  3.36429e-02, -2.33208e-02,  1.50086e-01,  9.37071e-01,  3.88865e-02,  1.08060e-01,  5.34547e-02,  1.05141e-01, -1.54647e-02,  1.83172e-02,  3.29016e-02,  5.67767e-02,  8.44324e-02,  5.77897e-02,  9.50767e-02,  1.16566e-01,  1.69262e-01,  3.07172e-01, -2.31207e-02, -1.62376e-01,  9.97714e-02,  9.11758e-02,  3.92211e-02,  3.93748e-02,  8.93741e-02,  7.49595e-02, -5.96420e-02,  9.69789e-02,  2.39050e-02,  1.25953e-01,  7.34454e-02,  2.03679e-02,  1.16614e-01,  3.65667e-01,  1.65813e-01,  3.93351e-01,  8.60576e-02, -1.01945e-01,  1.62415e-01, -7.68683e-02, -6.69715e-02,  7.03155e-01, -3.89951e-02,  1.58878e-01,  5.76741e-02,  5.25452e-02,  5.90373e-04,  1.68420e-01,  8.46788e-02,  1.24924e-02,  1.82586e-02,  2.68873e-01, -3.75115e-02, -3.34743e-02, -1.67649e-01},
	{  4.65700e-02, -1.68698e-02, -1.65381e-01,  6.11204e-02,  1.83161e-01,  8.93527e-01, -6.12324e-02, -6.51848e-02, -1.18331e-01,  1.21502e-01,  2.11892e-02,  1.29319e-01, -5.42063e-02,  1.21780e-01,  5.69570e-01,  1.46572e-02,  8.25529e-02,  1.25043e-01,  1.17602e-01,  1.18081e-01,  1.90579e-01,  1.84326e-01,  8.77113e-02,  2.27532e-02,  1.03995e-01,  6.33693e-01,  1.17250e-02,  1.63022e-01, -7.84243e-02,  8.37836e-02, -1.02691e-01,  3.98991e-02,  1.11188e-01,  6.32095e-02, -1.32715e-01,  2.48863e-01,  1.11830e-01, -9.42561e-02, -6.58592e-02,  5.57055e-02, -2.03579e-02,  2.54758e-01,  2.98493e-02,  1.52784e-01, -1.30528e-01, -8.01355e-02,  2.22846e-02,  2.38206e-01, -1.32235e-01, -2.95906e-02,  3.41696e-02, -4.54740e-03,  1.08661e-01,  4.25225e-03,  7.19114e-02,  2.37944e-01,  3.28039e-01, -8.19437e-02,  3.65431e-02,  2.24297e-01, -3.48041e-02, -5.83909e-02, -1.25781e-01, -5.71836e-03, -2.26296e-02,  1.31194e-01,  8.04385e-02,  3.59662e-02,  6.68896e-02,  2.48287e-01, -1.23804e-01, -8.97089e-02,  1.76083e-01,  9.92798e-02,  6.25386e-03,  1.44148e-01,  2.56695e-02,  3.75458e-01, -7.81696e-02,  1.08437e-01,  2.57807e-01,  1.86254e-01,  1.21565e-01, -8.25014e-02,  1.37643e-01,  8.33512e-01,  8.60744e-02, -4.05534e-02, -4.08018e-01,  3.01665e-01,  1.75042e-01, -1.52775e-02,  2.27522e-01,  1.88189e-01,  2.13204e-02,  9.32348e-02,  1.97789e-01, -7.01728e-03,  1.01801e-02,  9.70350e-02,  2.92852e-02,  1.85377e-01, -7.97894e-02, -3.61664e-04,  3.13893e-01,  8.98741e-01,  1.56644e-01, -7.24989e-02, -1.24591e-01,  1.33604e-01,  1.53587e-01,  1.29104e-01,  4.50617e-02,  4.72687e-01,  2.32139e-03, -1.34831e-01, -3.29643e-03,  1.35980e-01,  5.20593e-01,  4.01834e-01,  1.21893e-01, -3.42387e-02,  4.40600e-01,  3.71676e-02,  2.82467e-01,  5.03864e-02, -4.28019e-02,  9.26467e-02,  2.35877e-01,  1.25376e-01,  2.25199e-01,  1.53065e-01,  1.15183e-01,  4.02643e-02,  1.70066e-01,  2.30468e-03, -2.74323e-01,  1.23171e-01,  4.91012e-02, -6.51124e-02,  2.41224e-01, -5.11777e-02,  5.04194e-02,  5.93690e-02},
	{  2.00732e-02, -2.28671e-02, -1.74377e-02, -8.13693e-03, -1.21874e-01,  1.52081e-01,  2.10802e-02,  9.87674e-02, -1.37578e-02, -8.41559e-02, -3.97658e-02, -3.51933e-02,  9.34098e-02, -3.93993e-02,  4.63232e-03,  1.31178e-01, -1.35082e-01, -8.13345e-02, -2.24549e-02,  4.10882e-03,  1.42833e-01,  1.72175e-02,  1.20547e-01, -4.92161e-02, -1.10642e-01,  2.90767e-02, -4.04585e-02,  1.29855e-01,  1.28715e-01,  2.46542e-01,  5.53281e-02, -1.42479e-02,  1.06553e-01,  1.36485e-02, -3.64316e-02, -2.26892e-02, -6.90420e-02, -1.41420e-02,  2.66983e-01,  7.99961e-02,  7.53371e-02,  1.19160e-01,  5.78392e-02, -3.78858e-02, -8.13872e-02,  6.17984e-03, -1.50864e-01,  2.98939e-01, -5.52314e-02, -9.41373e-02, -2.41369e-02,  1.14824e-01,  1.76786e-02,  6.56315e-02, -7.01726e-02,  3.17626e-03, -7.09079e-02,  5.32029e-02, -3.49583e-03,  1.72770e-01,  7.61521e-02,  6.12128e-02, -4.21434e-03,  1.59765e-01, -7.53900e-02,  8.08635e-04,  1.52251e-01,  8.66913e-01,  1.77020e-01,  1.04585e-01,  1.43530e-01,  1.47620e-01, -5.34363e-02,  1.01738e-01,  6.55911e-02, -3.55611e-02,  4.19395e-02,  1.56413e-01, -5.88134e-02, -4.27558e-03, -9.09338e-03,  9.80262e-02,  8.42731e-02,  5.58858e-02,  7.72610e-01, -1.69783e-02, -7.57859e-02,  1.34251e-02,  1.17661e-01,  8.69611e-02, -3.45742e-02,  2.39240e-02,  9.62392e-02,  6.83234e-02,  3.09959e-01,  1.16903e-01, -5.34879e-02,  8.40402e-02,  1.85940e-02,  8.38810e-02,  2.27012e-01, -1.26194e-02,  6.36222e-02,  4.17836e-02,  2.17532e-02,  9.64032e-02,  1.71313e-01,  3.29052e-02, -7.86995e-02,  3.20094e-01, -2.30729e-03,  2.41619e-02,  4.84290e-02,  1.32787e-01,  5.46959e-02,  1.98878e-01,  6.34004e-02,  1.04539e-01,  4.47468e-02,  1.81992e-01, -1.01513e-01, -1.37487e-01,  1.34755e-01,  6.84052e-02,  7.24819e-02, -2.09443e-01,  9.33607e-02,  5.58973e-02,  3.27394e-01, -2.56405e-02, -1.13213e-01, -3.62217e-02, -1.56567e-02,  6.50152e-02,  1.25535e-01, -2.28759e-01, -1.56998e-01, -8.83271e-02,  4.58894e-02,  6.44252e-03, -7.95319e-03,  3.31617e-02,  1.24191e-01, -5.73040e-02},
	{  1.38799e-02, -5.61412e-02, -1.18911e-01, -3.59600e-02,  1.20519e-01,  1.67975e-01,  3.46339e-02, -6.83730e-02,  9.38911e-01,  1.37411e-02,  5.63930e-02, -2.52831e-02, -7.47893e-02,  3.20354e-02,  4.20677e-01, -1.09517e-01,  2.36606e-02, -6.62201e-02, -1.30378e-02,  1.46870e-01,  7.83403e-02,  2.65361e-01,  5.31043e-02,  1.74573e-02, -6.05026e-03,  1.15191e-02, -2.03754e-01,  2.10420e-01, -1.17455e-01,  1.48365e-01, -8.17841e-02,  5.55311e-03,  1.27864e-01,  3.97043e-02,  2.50556e-02, -1.20943e-01,  2.47686e-01,  7.44908e-03,  5.54481e-04, -1.92695e-02,  1.22760e-01,  5.36860e-02, -1.09113e-02,  5.86491e-02,  1.02430e-01,  2.78426e-02,  8.44526e-02,  2.11579e-01, -5.04545e-02,  9.90673e-02, -1.13653e-01,  8.05460e-02,  1.00576e-01,  7.36061e-02, -8.67260e-02, -1.04165e-01,  1.87449e-01, -9.03119e-02,  7.96423e-02,  3.83860e-02,  6.12550e-02,  2.75141e-02, -2.85803e-02, -1.22941e-01, -7.78076e-02, -1.30361e-02, -4.93863e-02, -1.12748e-01, -1.47993e-02,  1.59170e-01,  3.32723e-02, -5.62792e-02, -1.18707e-02, -5.41964e-03,  6.73681e-03,  8.64979e-02,  3.11154e-02,  1.87817e-01, -1.65417e-01,  8.38280e-02,  2.28059e-02,  2.63812e-01, -2.71842e-02,  4.36791e-02,  6.09069e-02, -4.82256e-02,  3.80044e-02, -1.10373e-01, -1.53125e-01,  6.39828e-03, -3.26857e-02,  1.14018e-01, -2.40494e-02, -1.27573e-01,  2.95209e-02, -4.04403e-02,  6.54315e-02, -5.09507e-02,  4.79190e-02,  4.12953e-02,  3.72681e-02,  1.39814e-01,  6.48121e-02,  2.78375e-02,  1.76182e-01,  3.73441e-02, -6.19912e-02, -2.21196e-02,  6.80861e-02,  2.23011e-01, -8.54943e-02, -1.36770e-02,  1.08777e-01, -6.91503e-02, -1.44195e-01, -8.97070e-02, -2.08749e-02, -5.62811e-03,  1.11586e-01,  1.63072e-02,  4.15078e-02, -6.63886e-02,  4.95844e-02, -1.74203e-01, -4.91981e-02,  2.97573e-03, -6.10634e-02, -1.05774e-01,  1.63388e-01,  3.17336e-02, -4.23024e-02,  1.15741e-01, -4.60727e-02, -1.22035e-01, -2.01426e-02,  1.25490e-01,  5.95147e-02,  3.90328e-03,  1.04042e-01,  3.88449e-03, -1.61890e-01,  3.26274e-02, -5.26858e-02,  2.97987e-02},
	{  4.62669e-02,  9.46501e-02,  2.18225e-02,  1.16043e-01,  1.53060e-01, -1.11327e-01,  2.68747e-03,  4.59721e-02,  6.99106e-04,  5.93524e-02,  1.93022e-01,  2.05282e-01, -9.95457e-02,  4.97411e-02, -4.01016e-02,  7.39505e-02, -1.35314e-02,  7.46853e-02, -9.61347e-02,  2.37856e-02, -4.95548e-02,  9.23307e-02,  2.02194e-01,  2.94269e-01,  1.10932e-01,  7.18187e-02, -6.62577e-03,  6.18229e-02, -1.97228e-01,  6.57297e-02, -1.03206e-01,  1.10003e-03,  1.55403e-01,  1.11222e-01,  8.20200e-02,  1.20776e-01, -3.47722e-02, -1.09277e-02, -1.17202e-01,  3.87691e-02, -1.08975e-01,  3.16872e-02,  1.89439e-02,  1.97802e-01, -2.11572e-02, -1.13718e-01, -2.24694e-02, -3.06065e-02,  1.70234e-02,  1.05247e-01,  1.03520e-02,  1.83741e-01, -1.20869e-01,  7.52741e-02,  5.99364e-02, -4.05075e-02, -8.03281e-02, -1.49191e-02,  1.25987e-01,  9.28821e-02,  7.17891e-03,  7.14155e-01, -1.51358e-01,  3.85825e-02,  1.37950e-01,  5.24908e-03,  1.38656e-01, -6.35530e-02,  2.03365e-01, -1.10556e-01,  1.01476e-01, -3.18025e-02, -7.59678e-02,  1.69726e-01, -3.49614e-02, -3.69348e-03, -2.17451e-02,  7.55651e-02,  1.98459e-02,  3.90923e-02, -1.12381e-01,  3.94083e-01,  3.22740e-02,  8.57337e-02,  5.56235e-02,  1.80616e-01,  1.04832e-01, -1.64004e-01,  1.06608e-01,  2.37682e-01,  1.76496e-01,  2.18582e-01,  3.47038e-02,  5.38011e-01,  8.09476e-02, -1.65875e-02,  2.05597e-01,  3.14605e-02, -3.38236e-02,  2.74894e-03,  9.18384e-02,  7.03342e-01,  3.82082e-01,  9.56844e-02,  6.58534e-02,  2.77063e-02, -9.13404e-02, -8.78100e-02,  1.40501e-01, -6.86030e-02, -6.34948e-03, -4.93910e-02,  1.81366e-02,  1.95154e-01,  2.22761e-01, -1.17098e-01,  1.85069e-01,  4.85981e-02, -7.91752e-02, -5.73594e-02,  5.82851e-02,  6.66466e-01,  3.65387e-01, -9.53399e-02, -1.26008e-01,  5.28407e-02,  7.16079e-02, -5.86905e-02,  8.06776e-02,  3.46323e-02, -6.61160e-02,  1.03632e-02,  6.80856e-02,  3.90835e-02, -1.50684e-01,  8.25518e-02,  8.26507e-02,  1.42916e-02,  2.24342e-01,  3.53341e-02,  6.70365e-02, -4.01752e-04, -1.60900e-01, -3.49790e-02},
	{  1.81853e-01, -1.78667e-01, -1.70746e-02,  8.11198e-02,  1.90110e-01,  2.60110e-01,  4.68334e-02, -1.54560e-03, -9.32329e-02, -7.44960e-02, -6.58634e-02, -1.37896e-01,  1.48460e-02, -1.26985e-02, -1.09811e-02,  3.65506e-02, -5.78476e-02, -4.72873e-02, -1.76972e-01,  7.83462e-02,  2.18545e-02, -1.33396e-01,  1.32421e-01, -2.84756e-02,  4.66556e-01,  9.66691e-02, -5.22546e-02, -2.30499e-02,  3.98736e-02,  1.88054e-01,  2.98376e-02,  7.23537e-02, -4.16626e-02,  3.26556e-02,  6.17795e-03, -3.26958e-02,  5.75905e-01, -7.02863e-02,  1.18769e-01, -8.32145e-02,  5.83899e-02, -2.22170e-02, -1.46777e-01, -1.70588e-01, -3.31629e-02,  1.67575e-02, -4.95357e-02, -5.61737e-02,  3.13889e-02,  1.15037e-01, -2.69644e-02, -7.44284e-02,  4.68547e-01, -3.16264e-02,  5.10918e-01,  6.16082e-01,  3.89201e-02, -2.44908e-02,  9.47381e-02,  1.99664e-01,  1.52657e-01, -2.03283e-01,  4.20202e-02, -4.25591e-02,  6.22504e-01,  1.48248e-02, -6.03531e-02, -6.80894e-02,  1.66051e-01, -2.02410e-02, -1.26191e-01, -1.31335e-01, -7.05859e-02, -2.34692e-02,  5.31892e-02, -9.20673e-02,  8.04903e-02,  2.04298e-02,  1.53937e-01, -8.77948e-02,  1.69403e-01, -7.63137e-02, -1.87722e-02,  1.08554e-01, -5.61543e-02, -1.27508e-01,  1.22263e-01,  1.21538e-01,  2.14094e-01,  1.76775e-01, -1.87796e-01, -6.48539e-02,  2.80561e-01,  3.59141e-02, -2.57718e-01, -9.92255e-02, -1.00897e-01, -1.00127e-01, -3.84478e-02,  1.15519e-01, -1.05649e-01,  7.51252e-02, -7.88806e-02,  1.34890e-02, -1.01735e-01,  2.03726e-01, -2.14948e-01, -5.54735e-02,  2.11401e-02,  7.59390e-03, -1.24700e-01,  1.17231e-01, -1.09771e-02,  1.93783e-02,  3.86479e-01,  3.75377e-02,  1.73579e-01,  1.26978e-01, -1.14180e-01,  5.95596e-02, -9.32066e-02, -3.89199e-02,  1.80956e-01,  5.08929e-02,  1.43995e-04, -3.27113e-02,  1.39262e-01,  1.34494e-01, -5.38929e-02,  1.27956e-01, -1.85515e-01,  1.47437e-01,  4.65510e-02,  1.03892e-01, -1.26262e-01,  5.93421e-02, -8.17930e-02,  1.76299e-01,  9.19095e-02, -1.15215e-03,  1.34975e-01,  3.65783e-02, -8.60785e-02,  8.75915e-03},
	{  6.82489e-02,  1.56871e-01,  3.12884e-02,  2.36456e-01, -4.21937e-02, -1.31149e-02, -5.63448e-02,  9.58729e-02, -3.09779e-02,  2.06247e-02,  9.99433e-02,  6.10414e-02,  1.56832e-02,  3.41630e-03,  4.77782e-02,  1.82206e-01,  2.04066e-02, -1.16436e-01,  1.61395e-01,  1.06672e-01,  1.75710e-01,  5.09997e-03,  2.22476e-02, -4.97334e-02,  1.36493e-01, -3.86136e-02,  2.25507e-02, -7.77896e-02,  1.94959e-02,  1.58015e-01, -6.36062e-02,  2.54488e-02, -2.53909e-02,  1.23856e-01,  3.58494e-03, -8.77707e-03, -4.79526e-04,  1.56005e-01, -1.58160e-01,  1.29803e-01,  1.13879e-01,  3.58775e-01, -1.25583e-01, -7.43469e-02, -2.04521e-01, -3.67489e-02,  3.49552e-02,  1.04002e-01,  1.77736e-01,  9.81248e-02,  8.63836e-02,  1.06116e+00,  1.09036e-01,  3.17464e-01,  1.91824e-01,  3.66423e-02, -1.27983e-02,  1.36686e-01,  1.71488e-01,  1.74030e-01,  5.61379e-02,  1.73676e-01,  1.32911e-01,  5.13905e-02, -3.80547e-02,  1.50310e-02, -2.89415e-03,  5.79832e-02,  1.83041e-01,  2.43602e-01,  4.94012e-02,  1.47311e-01, -2.35064e-02,  3.14907e-03,  9.12377e-03, -7.37983e-02,  8.10802e-02, -8.84571e-02,  1.49519e-01, -4.41693e-02,  2.58720e-01,  1.33155e-01,  2.67451e-03, -7.27355e-02, -4.73785e-02,  9.44195e-02,  6.10090e-03, -1.80277e-01, -1.26924e-02, -1.76258e-03,  6.54575e-01,  7.19636e-02,  1.59717e-01,  1.42631e-01, -6.77127e-02,  2.31243e-01, -4.13112e-03, -7.17691e-02, -5.96247e-03, -8.33897e-02,  8.83036e-02,  2.18079e-01,  1.25822e-01,  2.94336e-02,  7.94936e-02,  1.23975e-02,  1.28535e-01,  1.59102e-01, -4.21335e-02, -1.61213e-02, -2.64552e-02,  2.63225e-01, -2.61092e-04,  8.42714e-02,  9.78735e-02,  1.21069e-01,  1.19341e-01, -5.49175e-02,  3.74294e-02,  1.03969e-01,  2.42053e-02,  1.17201e-01,  2.89632e-01, -1.08614e-01, -6.65665e-02,  8.14918e-02,  1.30694e-01,  1.44840e-01, -1.03920e-01,  1.20073e-01,  1.18113e-01, -1.82431e-02, -1.37729e-01,  1.64150e-01,  1.48996e-01,  1.37925e-01,  2.68709e-01,  4.42081e-02,  3.71367e-01,  7.46135e-02,  1.89002e-01,  1.84812e-02,  2.04266e-03,  2.27856e-01},
	{  1.69826e-01, -3.83889e-02,  1.34433e-01, -7.06700e-02,  1.91900e-01, -5.98192e-02,  9.45274e-02, -7.45032e-02,  1.37232e-01,  5.82595e-02, -8.71627e-02,  8.11563e-01,  1.26187e-01, -5.69042e-02, -1.14102e-01,  1.50906e-01, -1.03699e-01,  1.21012e-01, -5.58864e-02, -7.51405e-02, -3.66881e-02, -1.30127e-01,  2.07245e-02,  1.16077e-01,  1.36581e-01,  1.20735e-01,  3.40911e-01, -5.35823e-02,  8.83521e-02,  5.11272e-02, -4.22283e-02,  6.93567e-02, -1.79172e-01,  3.29552e-02,  1.17453e-01, -1.32917e-01,  6.72806e-02,  1.33172e-01, -1.03018e-01,  1.12420e-01,  1.94508e-01, -1.22830e-02, -8.81386e-02, -1.24613e-01,  2.88402e-03,  8.59208e-02, -1.04118e-01,  2.08433e-01,  4.51126e-02,  8.76432e-02,  8.92388e-02, -4.21587e-02,  1.13443e-01, -1.20781e-01,  1.74922e-01,  1.17738e-02,  2.38772e-02,  1.53417e-01,  2.61129e-02,  6.64945e-02, -1.08926e-01,  4.33607e-02,  1.20823e-01,  9.86642e-02,  2.08080e-02, -3.36279e-02,  1.04030e-01, -4.01786e-02,  1.26576e-01,  4.07958e-01, -1.12489e-01,  1.20232e-01,  5.55793e-02, -1.53800e-01,  5.46191e-02, -1.07607e-01,  1.30308e-01, -3.47501e-04, -2.84221e-02,  1.51559e-01,  2.57004e-01,  1.03699e-01,  4.80730e-01, -1.46527e-01,  3.29681e-02,  6.70101e-02, -9.89232e-02,  1.58850e-01,  1.47206e-01, -1.26438e-01,  3.88543e-01,  2.34780e-02, -3.94762e-02,  1.56513e-01,  3.18480e-02,  4.17729e-01,  7.24904e-02,  1.62661e-01,  9.49620e-03,  9.90312e-01, -1.04108e-01, -1.37732e-01,  1.10937e-01, -1.16841e-02,  7.17880e-02, -9.22064e-02,  1.50373e-03, -4.05865e-02, -3.69350e-02,  5.51881e-02,  6.82801e-02,  1.45069e-01,  1.18529e-01, -4.97805e-02,  1.04749e-01,  2.18802e-02, -9.40184e-02,  1.58853e-01,  1.13906e-01, -1.27810e-01,  4.14653e-02, -2.51878e-02,  1.38303e-01, -1.15903e-01,  1.99325e-02, -5.36266e-02,  5.33456e-02, -6.50549e-03,  4.11028e-03,  1.05282e-01, -7.13425e-02, -5.48150e-02,  8.80719e-02,  1.56127e-01, -5.98082e-03, -6.14975e-03,  2.46065e-01,  5.66238e-02, -1.46263e-01,  2.02563e-01,  2.76773e-01,  1.36735e-03,  1.07730e-01,  1.22628e-01},
	{  1.34432e-01,  7.75175e-02,  4.63537e-02,  7.54612e-02,  6.21883e-01, -4.86842e-02, -3.35244e-02, -6.70962e-03, -2.14564e-02,  3.33688e-02,  6.20721e-02,  1.35157e-01, -1.08126e-01, -2.29140e-02, -7.67044e-02,  1.40181e-01, -2.51903e-02,  3.24014e-03, -6.29262e-02, -6.27625e-02, -4.93091e-02,  1.89242e-02, -1.65769e-01,  2.31998e-01, -5.96174e-02,  1.55211e-02, -1.45422e-01, -1.27237e-01, -8.03645e-02,  2.30861e-03,  1.22661e-02, -3.04869e-02,  1.05384e-01,  4.51567e-02, -8.44708e-02, -5.22510e-02, -1.97837e-02,  2.81491e-02,  1.41469e-01,  4.51431e-02, -3.18631e-02, -1.65396e-01, -1.08992e-01,  1.10561e-02,  9.94808e-02,  1.13607e-03, -1.47514e-02,  1.57776e-03,  2.47838e-02,  3.50621e-02,  1.04838e-01,  2.81346e-02, -9.88064e-02, -4.56045e-02, -2.54367e-02,  8.87069e-02,  9.44793e-03,  2.62367e-01,  8.45160e-04, -1.73469e-01,  1.24385e-01,  5.08832e-02, -5.14281e-02, -2.90391e-02, -3.13868e-03, -9.43812e-02,  5.42602e-01,  1.12739e-03, -8.32591e-03, -1.90480e-01,  7.03798e-02,  1.23846e-01, -9.50190e-02,  1.92639e-02,  3.47806e-02,  8.35810e-02, -1.05962e-01, -7.72353e-02, -5.92874e-02, -1.64364e-02, -9.66326e-02,  3.22286e-02, -6.21069e-02, -4.11666e-02,  2.20341e-01, -1.51317e-01, -3.21493e-02,  4.75444e-02, -1.83887e-02,  4.89179e-02, -3.46222e-02, -1.73686e-01,  2.64671e-02, -4.69872e-02, -4.87333e-02, -7.26801e-02, -1.05628e-01,  2.52458e-02,  1.62949e-02,  9.37278e-03, -1.04054e-01, -1.73656e-01, -8.87356e-02, -1.58456e-01, -3.10240e-02,  1.29916e-02,  5.79273e-01, -1.48864e-02,  9.88011e-02, -1.07354e-01, -2.09777e-02, -7.38650e-02,  2.05549e-01,  2.26284e-02, -8.91688e-02, -3.98151e-02,  3.25433e-01, -7.52707e-02,  1.37178e-01, -1.40486e-01,  5.31167e-01, -1.00995e-01,  6.92629e-03, -9.73651e-03,  3.85700e-03,  1.13820e-01, -1.26271e-02, -2.80533e-01, -7.03202e-02, -2.04221e-01, -8.31785e-03, -1.26362e-01,  6.85930e-02,  6.36085e-02, -9.61177e-02,  1.25767e-01, -1.73780e-02, -6.20678e-02,  5.24938e-02,  8.52408e-03, -2.45923e-01, -7.73979e-02, -3.85838e-02,  7.52179e-02},
	{ -2.70689e-02,  2.03869e-03, -9.06289e-02,  1.06782e-01, -8.94259e-03, -7.46083e-02, -1.58004e-01,  7.83795e-02,  1.78677e-02, -3.02177e-02,  1.42289e-01,  1.20385e-01, -4.67676e-02, -6.79646e-02, -1.27162e-01,  8.94042e-02, -4.97124e-02,  1.36165e-02, -1.99277e-01, -1.02114e-01, -3.59094e-02, -2.27986e-02,  2.05283e-01,  1.32095e-01,  1.96875e-02, -4.17371e-02,  1.15577e-03, -7.44213e-02,  4.79851e-02,  1.39027e-01,  2.81366e-02,  2.09055e-01,  1.19839e-01,  1.39718e-01,  7.80508e-02,  1.26054e-02, -7.43941e-02,  8.74482e-02, -4.53620e-03, -1.71653e-02, -6.25479e-02,  5.82131e-02,  3.35238e-02,  1.67789e-01,  6.71123e-01,  2.23212e-01,  7.21388e-03,  1.23446e-01,  3.64401e-03, -1.06600e-01,  1.20922e-01,  8.53695e-02,  4.23098e-04,  3.25833e-02,  7.02688e-02,  1.49519e-02,  6.74821e-02,  5.36923e-01,  1.86868e-02, -7.51258e-02, -7.06110e-02,  2.17029e-01, -8.11789e-02, -2.99620e-02, -3.43723e-03, -1.53774e-01, -1.35145e-01,  6.21050e-02,  1.68323e-01,  1.18035e-01, -7.37301e-02,  2.59174e-02, -1.72056e-02,  1.27805e-01, -7.35746e-02,  7.84654e-02,  1.47379e-01, -6.19754e-02,  6.78022e-02,  6.97142e-02, -1.12419e-01,  1.54172e-01, -1.78057e-02,  1.25675e-02,  1.26212e-01,  1.75237e-01,  1.03154e-01,  6.72662e-02, -2.61018e-02,  3.21999e-01,  8.20498e-02,  1.49709e-01, -5.86238e-02,  7.16701e-02,  2.49466e-02,  1.25733e-01,  6.82217e-02, -4.69628e-02, -1.21467e-01,  7.28635e-02,  2.27508e-01, -1.12629e-01,  3.73999e-01,  1.46223e-01, -1.01873e-01,  4.49590e-02, -7.91114e-02,  8.35253e-02,  5.09032e-02, -5.32930e-02, -1.18776e-02,  1.54501e-02,  1.39394e-02,  1.20770e-01,  4.44563e-02, -2.50082e-03,  1.19981e-01,  1.29239e-01,  5.11288e-02,  6.01424e-02,  3.07068e-01, -1.38268e-01,  1.91577e-01,  1.66013e-02, -2.02446e-03,  7.72728e-03, -1.15261e-01,  1.39282e-02,  8.20433e-02,  8.21825e-02, -1.57595e-01,  3.23472e-02, -6.93414e-02,  9.82417e-02,  7.58377e-01, -4.03587e-02,  7.06485e-02,  2.24135e-02,  4.15875e-02,  5.69275e-02, -4.54487e-02, -2.60545e-02, -2.22042e-01,  1.95847e-01},
	{  9.74826e-02, -5.53151e-02, -8.90086e-02,  5.55781e-02,  1.42073e-01, -2.30653e-02, -2.18276e-02, -1.29163e-02,  7.88662e-02,  3.36045e-02,  1.25861e-01, -1.45429e-02, -2.93893e-02,  7.26410e-02, -1.21319e-01,  4.79635e-02,  4.01347e-01, -2.41742e-02,  2.23462e-01, -5.30909e-02, -2.58310e-02,  1.42863e-01,  1.72222e-01,  1.27096e-02,  2.94229e-02,  1.33754e-02,  1.71979e-01,  4.41349e-02,  6.25810e-01,  2.14165e-02,  5.96501e-02, -3.00767e-02,  1.32191e-01,  1.22537e-02,  1.04727e-02, -1.66537e-02,  3.70606e-02,  9.49504e-02, -2.19751e-01, -1.72688e-02,  1.80110e-02,  1.41857e-01,  1.28474e-01,  6.45915e-02,  2.58129e-01,  1.01829e-01,  1.41329e-01,  7.54214e-02, -3.99565e-03, -5.27094e-02,  2.34180e-01, -5.98052e-03,  7.30925e-02, -4.71163e-03, -7.05812e-02,  7.72972e-02,  2.12263e-01, -2.89416e-01,  1.32757e-01,  1.89266e-01,  2.75804e-02, -8.33320e-02, -5.26461e-02,  4.34917e-02,  1.94361e-01,  2.21784e-01,  1.36643e-01,  5.70361e-02,  5.78252e-03,  2.48738e-01,  9.64905e-02, -1.54413e-02, -3.02594e-02,  1.17634e-01,  2.44157e-02,  6.09608e-02, -1.07249e-01,  1.42453e-01, -4.72214e-02,  1.01989e-01,  7.01376e-02,  2.50971e-01,  2.31952e-01,  2.36692e-01,  2.22853e-01, -1.06704e-01,  4.81240e-02, -1.56514e-01,  2.12445e-01,  1.72131e-01, -2.29891e-02, -4.55201e-02, -8.09244e-02,  1.55224e-02,  1.17511e-01,  1.05808e-01,  3.19827e-02,  1.34404e-01,  6.08927e-02,  1.44458e-01,  9.50927e-02, -5.06762e-02,  2.71752e-02,  3.35629e-01,  3.01196e-01, -1.44121e-01,  1.51821e-01,  7.14277e-02,  1.02429e+00, -1.29994e-02,  1.09795e-02, -2.01702e-03,  1.39273e-02,  3.51820e-01,  2.52658e-01,  1.97374e-02, -1.03955e-01,  5.70678e-02,  5.04310e-02,  4.42695e-01, -6.08191e-02,  3.82426e-02,  3.08573e-01, -4.87434e-02,  1.60151e-01,  5.62560e-02, -4.60913e-02,  1.21867e-01,  6.90444e-02,  1.51765e-01,  1.90513e-01,  9.87273e-02, -3.53160e-02, -2.07053e-02, -3.02092e-03, -1.18037e-02,  9.65427e-02,  1.47390e-01, -3.36656e-02,  9.86539e-02,  3.77748e-01,  9.27236e-02,  2.97819e-03,  1.52157e-01},
	{  1.06662e-01,  1.99059e-01,  2.14409e-01, -5.12524e-02,  2.17211e-01, -7.67859e-03, -5.30849e-02,  7.31492e-02,  9.10960e-02, -2.20452e-02, -9.71622e-06,  5.31046e-02,  4.84452e-02,  8.26852e-03,  1.26471e-01,  1.93949e-01, -1.77059e-02,  1.68708e-01,  1.29588e-01,  1.23363e-02,  1.97331e-01, -2.66904e-01,  9.00948e-02,  2.68692e-03, -1.01298e-01, -5.23155e-02, -7.72874e-02,  1.17937e-01,  1.72329e-01,  2.94795e-01,  4.35887e-02,  6.15386e-02, -3.00213e-01,  2.66412e-02, -7.31770e-02,  1.70899e-01, -3.17848e-02,  1.68105e-02, -7.41035e-02, -1.46864e-01,  1.80810e-01,  1.76133e-01, -1.77077e-01,  7.45863e-01,  9.07913e-02,  4.83991e-02,  4.63857e-02,  2.11116e-01, -1.13506e-01,  1.56203e-02,  1.79493e-01, -6.61893e-02,  2.32598e-01,  4.66991e-02,  2.58267e-02,  1.03542e-01,  2.29044e-01,  1.32184e-01,  1.87141e-01,  5.92398e-02, -5.58393e-02,  2.01772e-01, -6.31948e-02, -1.26672e-01, -1.06576e-01,  7.29438e-02,  2.13592e-02,  1.29174e-01,  1.25804e-01,  1.05474e-01,  1.30999e-01,  9.13897e-02,  8.76490e-01, -1.32891e-01,  4.04957e-02,  9.15265e-02,  4.86739e-02, -1.17523e-02,  1.55521e-01,  9.53883e-02,  3.72489e-01,  2.53169e-01, -1.92066e-01, -9.43791e-02,  1.16422e-01,  8.66774e-02,  1.09156e-01, -2.34933e-01, -7.88427e-02,  2.85180e-01,  9.74837e-02,  1.31333e-01,  5.27022e-03, -1.47630e-01, -4.81624e-02, -1.98777e-01, -2.61528e-02,  3.92368e-01,  1.23311e-01, -3.79965e-02,  5.75284e-02, -1.01903e-01,  4.12492e-02,  6.41449e-01,  6.89800e-02, -8.57869e-02,  1.08228e-01, -1.28889e-02, -9.81572e-02,  1.23998e-01,  4.39039e-02,  6.77534e-01, -8.16915e-02, -5.17057e-02,  1.15562e-01, -7.91075e-02,  7.51668e-03,  1.41771e-02, -4.32862e-02,  3.20765e-02,  1.54375e-01,  1.39963e-01,  3.42269e-01,  2.51407e-01, -6.74777e-03,  1.78040e-01,  1.25342e-01,  1.39552e-01, -3.16861e-02,  2.62563e-01,  8.34896e-02,  2.61694e-01,  1.33613e-01, -1.85278e-02,  2.20284e-01, -3.83968e-02,  4.08282e-02,  6.61684e-01,  1.66894e-01, -4.46442e-03,  3.75501e-01,  2.21318e-01, -1.28578e-02,  2.03888e-02},
	{  4.08984e-02, -1.81829e-01, -5.25577e-03,  5.04639e-02, -3.51309e-03,  1.51664e-01,  1.56655e-03, -8.76137e-02,  1.45386e-01, -4.58341e-03,  1.57017e-01, -1.53851e-01,  1.19223e-01,  1.68760e-01,  2.86963e-02,  3.87202e-01,  1.08081e-01, -6.99571e-02,  7.36800e-04,  2.79108e-02,  4.63946e-02,  1.29215e-01,  9.16630e-03, -1.29641e-01, -9.90001e-02,  7.75191e-02,  3.46511e-01, -1.40339e-01,  9.97083e-02,  1.06961e-01, -4.14617e-02, -7.59206e-02,  7.87161e-03, -3.55044e-02,  1.62908e-01, -1.24804e-01,  2.81205e-02,  6.28567e-02,  1.63242e-01,  6.64967e-02,  1.53325e-01,  1.13391e-01,  1.49699e-01, -1.55791e-01,  1.49488e-01, -1.31562e-01,  4.00893e-01,  3.40365e-01,  3.72892e-02, -5.81971e-02,  7.01961e-01, -1.29561e-01, -7.24479e-02,  1.81521e-01,  8.21792e-02, -9.23341e-03,  3.30071e-03,  6.61405e-02, -8.09615e-02,  2.51963e-01, -1.02267e-01,  1.23091e-01,  5.44602e-02,  4.01360e-02, -6.02553e-02, -8.61675e-02,  1.36923e-02,  1.33534e-02,  1.11656e-01,  1.33340e-01,  1.42618e-01, -3.44965e-02,  9.94143e-02,  1.23993e-01,  4.51993e-02, -3.52143e-02,  5.70868e-02,  1.60785e-01,  8.19170e-02,  1.79826e-02,  1.43095e-02,  1.08658e-01, -6.15104e-02,  2.91896e-01,  1.59597e-01,  1.22910e-01,  5.97387e-01,  2.25215e-01,  7.58092e-03, -5.89562e-02, -6.38858e-02,  4.03450e-01, -5.02874e-02, -9.46653e-02,  2.72718e-01, -6.51666e-02,  8.99240e-03,  7.67090e-02,  8.13359e-02, -6.34388e-02,  1.19516e-02,  1.22299e-01,  1.88595e-01,  3.33882e-01, -1.41777e-03, -2.49225e-02,  5.59286e-02,  5.62493e-02, -4.26714e-02, -9.20948e-02, -1.24670e-02,  2.27957e-02,  3.63669e-02,  1.57364e-01, -6.50684e-03,  2.01197e-02,  1.23604e-02, -5.07667e-02,  1.67537e-01, -4.42365e-02,  1.11538e-01, -8.46695e-04,  8.21174e-02, -5.99822e-03,  1.08955e-01, -1.51857e-01,  3.60869e-02, -3.60544e-02,  2.71905e-01,  2.74894e-02,  3.22203e-02, -1.04230e-01,  6.66073e-02,  2.95525e-01, -4.45127e-02, -1.70241e-01,  1.48498e-02,  7.55057e-02,  1.33881e-01, -1.07102e-01, -2.13373e-02, -1.20801e-02, -4.96604e-02, -1.79683e-01},
	{  6.69297e-02, -2.64603e-02, -6.94162e-02,  5.42340e-01, -8.05395e-03,  4.97973e-02,  8.55276e-03,  6.91780e-02,  1.57283e-01,  7.64429e-02, -2.05832e-01, -2.98039e-02,  3.39121e-02, -4.37642e-02, -8.42978e-02,  2.39962e-01, -1.04728e-01,  1.63747e-01, -1.05874e-01,  3.75820e-01,  4.72420e-02, -5.64505e-02,  6.50666e-01,  9.55771e-02,  1.78023e-01, -1.22787e-01, -6.73092e-02,  4.37957e-02, -9.68009e-02,  1.63709e-02,  1.49094e-01,  5.48441e-02, -2.17388e-02,  7.63586e-02, -3.37030e-02,  6.45176e-02, -1.68061e-01,  7.65820e-02,  8.52717e-02,  5.26203e-02, -4.77946e-02,  3.38114e-02,  1.10870e-02,  1.24593e-01,  4.22024e-02,  8.21204e-02, -2.53214e-02,  5.09019e-03,  2.21472e-02,  6.09512e-02,  3.49093e-02, -1.40314e-01, -1.11430e-01, -2.76495e-02,  3.34905e-02, -8.90016e-02,  1.20542e-01,  4.31554e-02, -7.65869e-02,  9.57745e-02, -1.37168e-01,  9.55790e-02,  7.09620e-02,  1.02970e-01,  5.74145e-03, -4.65528e-02,  5.17612e-02, -4.63272e-02,  1.51866e-01, -1.48341e-01, -2.32029e-02, -2.90169e-02,  8.88650e-02, -3.47802e-02,  3.55556e-02, -5.75287e-02, -4.17651e-02,  1.95894e-02,  1.56023e-01, -2.11231e-02,  7.05357e-02,  4.50999e-02,  1.04716e-01,  2.68531e-01, -6.81616e-02,  1.42700e-01, -2.18992e-02, -1.33754e-01,  2.39296e-02,  2.04764e-02, -1.14170e-01,  3.72163e-03,  3.21828e-02,  1.66748e-01, -5.95098e-02,  8.79573e-02,  2.90461e-02, -1.29493e-01, -1.14092e-01,  6.00934e-02, -2.47154e-02,  1.69706e-01,  1.47132e-01, -9.87106e-02,  8.69214e-02, -1.11385e-01, -2.97270e-02,  1.10222e-02, -2.10011e-01, -2.72196e-01,  2.57157e-03, -3.12358e-03,  7.15725e-01,  7.22597e-02,  7.40991e-02,  7.57651e-02,  3.92318e-02,  1.19148e-01,  9.68956e-02,  1.17770e-01,  1.00230e-01,  7.27162e-02, -3.55714e-02, -1.16818e-01,  6.63963e-02, -1.20520e-01,  1.07715e-01,  4.73923e-02,  5.01031e-02,  1.03234e-01,  1.31597e-01, -4.55035e-02, -2.83310e-02,  4.47325e-02,  1.75888e-01, -2.23566e-02, -1.26858e-02, -6.19088e-03,  6.90660e-02,  1.95709e-03, -7.90764e-03,  8.74893e-02, -2.60200e-02, -9.40373e-03},
	{  4.84419e-01,  6.27453e-02, -2.26295e-02,  1.49075e-01,  9.05579e-02, -6.21450e-02, -8.65062e-02,  9.60214e-02,  3.97953e-02, -8.25872e-02,  1.15403e-02,  6.80433e-02,  6.57480e-02, -1.87148e-01,  1.01567e-01,  1.53948e-01,  1.22460e-01, -1.19701e-01,  2.06444e-02,  3.52213e-03,  6.77113e-03, -1.43363e-01, -6.25641e-03,  1.13716e-02,  1.41472e-02,  7.26435e-02,  1.59055e-02,  1.00378e+00, -9.28560e-02,  1.34025e-02,  1.26674e-01,  5.99316e-02,  3.89296e-02, -5.01956e-02,  1.20093e-02,  3.97143e-02,  2.10071e-02,  3.40910e-01,  9.71498e-02,  3.08767e-02, -1.28022e-01,  3.80015e-02,  5.20264e-02,  1.96351e-02,  3.84032e-02,  8.87082e-02, -7.60595e-02,  9.06005e-02,  6.53008e-02,  3.61502e-02, -2.22309e-02,  2.63895e-02,  1.92143e-02,  9.66184e-02,  1.69908e-03, -4.87643e-02,  3.49612e-02,  2.15218e-01, -1.71499e-01, -3.43206e-02,  2.64130e-01,  1.47628e-01,  9.86730e-02, -1.33729e-01,  9.14781e-02,  1.51049e-01,  1.14603e-01,  4.12837e-02,  9.76657e-02,  1.44390e-01,  3.73147e-01,  7.90966e-02,  5.62742e-02, -1.08530e-01, -5.17224e-02, -1.93976e-01,  5.78269e-01,  5.21085e-02,  6.86106e-01, -8.74938e-02,  3.89900e-03,  7.79586e-02,  1.40609e-01,  1.40271e-01,  1.07174e-01,  8.37270e-02,  2.05039e-02, -2.62018e-02,  8.80497e-02, -6.37043e-02, -2.60863e-02,  4.02761e-03,  1.73074e-01,  1.03752e-01, -1.22175e-01,  1.76925e-02, -2.87143e-02, -5.98433e-02,  4.14662e-01, -1.50468e-02, -1.21203e-01, -1.92098e-01,  8.62873e-02, -1.98809e-02, -1.39900e-01, -1.51993e-02, -5.04781e-02,  3.15957e-03,  9.73588e-02, -9.32727e-02,  1.04187e-01,  5.74867e-02,  1.25028e-01,  9.95099e-02,  1.39274e-01,  4.91409e-02, -9.84021e-03,  2.48221e-02, -4.18115e-02,  1.03604e-01,  1.35909e-01, -5.57694e-02,  1.98677e-02, -7.77596e-02,  5.14915e-02, -1.38319e-01, -6.41588e-02,  1.77861e-01, -9.21212e-02, -3.75725e-02,  1.59153e-01, -1.19934e-01, -6.86924e-02, -1.45187e-01, -3.40111e-02, -1.76503e-01,  4.14261e-02,  1.04257e-01,  8.44797e-02,  3.42484e-02,  2.09359e-01,  1.33185e-02, -4.16560e-02,  1.69600e-01},
	{ -1.72033e-02,  6.07482e-01, -4.06938e-02, -1.53047e-02, -1.87126e-01,  1.03956e-01,  2.76106e-02,  6.86314e-02,  7.83423e-04,  6.86246e-02, -1.00320e-01, -8.05982e-03, -6.66688e-02,  4.34425e-02,  2.42955e-02, -7.81180e-02, -1.57508e-05,  6.37167e-02,  1.27867e-01, -4.59358e-03,  1.27858e-01, -3.98714e-02, -3.64960e-02, -5.65445e-02, -3.40515e-02,  5.09709e-02,  7.44835e-01, -8.54196e-02,  6.52320e-02,  6.37174e-03,  3.49750e-02,  8.71423e-03, -7.26966e-02,  8.57300e-02,  9.53131e-02, -1.81519e-01,  1.72368e-02, -9.98810e-02,  7.10983e-02, -1.84577e-02, -2.17817e-02, -1.52827e-02,  3.90535e-02, -3.29052e-02,  4.56397e-02,  1.28266e-01, -8.58602e-02, -1.73152e-01,  7.40403e-02, -1.44254e-02, -7.01057e-02, -9.19974e-02, -7.81000e-02,  8.89257e-03,  2.74288e-02, -1.38114e-01, -1.83437e-01, -8.28397e-03, -1.28642e-01, -1.18434e-01,  5.64983e-02, -8.76555e-02,  3.16359e-02, -5.79076e-02, -2.63663e-02, -4.70027e-03,  1.85703e-01,  2.38969e-03, -2.32120e-01,  2.59371e-02,  7.44560e-02, -4.11979e-02,  3.21149e-02,  7.90773e-02, -6.13035e-02, -9.92349e-02,  1.53239e-02,  1.46097e-01,  2.24704e-02, -1.64158e-01,  2.75383e-02, -1.12005e-01, -6.94124e-02, -4.49254e-03, -9.50542e-02, -9.93680e-02,  8.16860e-02,  1.68750e-01, -5.09058e-03,  5.39341e-02, -2.02021e-01, -9.53025e-03,  1.69353e-02, -2.77967e-02,  3.16887e-02,  5.97425e-03, -1.57733e-01, -1.63806e-01,  6.84405e-02, -9.37029e-02, -8.73350e-02, -5.79582e-02, -7.16360e-02, -1.40170e-01,  4.28385e-02,  8.07280e-02,  3.94501e-03,  4.82407e-02,  1.30414e-02, -1.52999e-01, -1.45937e-01, -1.32401e-01,  5.00940e-02, -8.35901e-02, -9.00514e-02,  3.31608e-02, -3.15284e-02, -2.78833e-02,  4.83859e-02,  6.18223e-02, -2.19269e-01,  1.62645e-02,  2.45101e-01,  1.47924e-01, -1.32425e-01,  5.56725e-02,  5.58725e-02,  1.05324e-01,  8.58544e-02,  6.14741e-01, -6.41097e-02, -6.35529e-02,  2.39340e-02,  6.20758e-02,  1.60911e-02,  2.21969e-01, -7.81957e-02, -3.48787e-02,  5.34904e-02,  9.63000e-02, -5.13116e-02, -2.83915e-02, -2.00935e-01, -1.41485e-01},
	{  1.42400e-01, -1.71464e-01,  9.79250e-02, -1.49436e-02, -9.43902e-03,  3.17103e-02, -2.87268e-03, -1.25833e-01, -7.15141e-02, -1.96150e-01,  3.71981e-02,  9.38027e-03,  1.04440e-01, -1.90121e-02,  5.10458e-02, -6.65584e-02,  1.32044e-01, -9.31222e-03,  1.61037e-01, -7.87047e-02,  5.96740e-01, -3.68333e-02, -3.12140e-02,  4.70269e-02, -8.01951e-02, -4.69599e-03,  2.48427e-01,  3.70984e-02, -6.29535e-02,  2.00668e-02,  2.28622e-01,  1.76027e-01, -1.60632e-01, -5.88572e-02,  7.74879e-02,  8.26731e-01, -2.42527e-02,  1.41263e-01,  1.38900e-01,  1.72635e-02, -4.84234e-02, -2.33021e-02,  1.30334e-01,  2.93407e-03, -5.53574e-02, -2.64968e-02,  5.21865e-01, -3.07456e-02, -1.75918e-01, -1.42586e-02, -4.34943e-02, -5.78409e-03,  2.18194e-02,  1.11850e-01, -3.43520e-02,  1.22311e-01, -5.98239e-02, -1.49922e-01,  1.06027e-01,  1.20969e-01,  1.61571e-01, -2.45401e-02,  6.42319e-02,  4.41736e-02,  6.62527e-02,  4.55530e-02, -3.94966e-02,  1.69752e-02,  1.42153e-01,  3.09601e-01, -2.08642e-02,  3.89016e-02, -6.24824e-02, -6.88288e-02, -5.20414e-03,  9.32168e-02, -1.19343e-01,  5.15259e-02,  3.90043e-02,  1.53132e-02, -3.78459e-02,  1.34943e-01,  1.29622e-01,  2.03411e-01,  4.69356e-02,  3.42380e-02, -1.09755e-01, -9.64372e-03, -6.07590e-02,  1.14024e-01,  1.21955e-01, -1.27865e-01,  1.04467e-01, -1.43994e-02,  1.21019e-01,  1.70539e-01, -6.18268e-02, -2.34628e-03,  5.95449e-02,  1.09880e-01,  6.73427e-02,  4.38460e-02, -2.65084e-02,  8.78712e-02, -6.85976e-02,  3.63826e-02, -1.02188e-01,  1.43271e-01,  8.68367e-02,  3.92068e-01,  1.45202e-02, -8.97190e-02, -2.48157e-02,  4.94381e-02,  9.14497e-02, -6.40004e-02,  5.34630e-02, -3.72874e-02, -4.35001e-02, -1.08344e-01,  1.69666e-02, -1.23536e-01,  1.22440e-01, -7.52463e-02,  8.26681e-02,  3.91470e-02,  5.95695e-03,  9.32736e-02, -1.51629e-01,  7.98510e-02,  3.28834e-02, -7.17904e-02, -1.72682e-02,  1.10605e-01, -1.56580e-01, -3.03773e-02, -6.63651e-02,  3.93980e-02, -5.83237e-02,  1.69031e-01,  8.25483e-02,  3.24807e-02, -5.19167e-03, -2.50805e-02},
	{  7.12280e-02, -9.22338e-03,  4.16677e-02,  1.78525e-02,  1.54947e-02, -7.43299e-02, -6.03159e-02, -5.69395e-02, -3.21226e-02, -1.70188e-02, -4.53217e-02, -3.66803e-02, -3.15703e-02, -1.17533e-01, -2.97090e-02,  1.48974e-02,  1.94047e-01, -1.14747e-01,  4.21465e-02,  7.53258e-02, -1.83498e-02,  5.27204e-02, -6.74119e-02,  6.02086e-02, -7.89398e-02,  7.26821e-02,  1.75350e-01, -5.31536e-02,  7.15390e-03, -1.74323e-02,  3.78902e-02,  9.33991e-04, -3.14586e-02, -4.50606e-02, -6.32741e-02,  5.19325e-02, -1.76161e-01,  1.40653e-01,  1.58707e-01, -1.07089e-01, -1.11158e-01, -5.12070e-02,  3.64314e-02,  1.70705e-01,  3.02220e-03, -4.68808e-02, -1.23359e-01,  2.39712e-01,  1.56529e-01, -9.08844e-02, -5.86955e-02,  1.19373e-02,  6.85152e-02, -4.75111e-02,  1.45586e-01,  7.63261e-02, -8.97374e-02,  6.05407e-02, -9.23701e-02,  1.78291e-01,  2.55527e-01,  1.19951e-01, -1.07526e-01,  7.83349e-02,  1.71987e-02, -2.05539e-02,  2.09072e-02,  7.85587e-02,  2.23872e-01,  2.87358e-01, -1.08750e-01,  1.18662e-01, -1.30620e-03, -1.31032e-01,  7.57456e-02, -1.09930e-01,  1.26400e-01,  1.88064e-03,  7.43616e-03, -1.23491e-01, -3.48671e-02,  1.82656e-01,  1.97995e-02,  2.86642e-02,  1.31493e-01,  1.30160e-01,  3.05978e-02, -6.45821e-02, -1.51380e-02,  2.58216e-02,  2.46200e-01, -4.51623e-02, -5.38569e-02,  1.16988e-01,  1.24158e-01, -6.59751e-03,  4.30911e-02,  1.07784e-01,  2.00291e-01,  3.85461e-02,  3.11323e-02,  2.00631e-01,  1.53244e-02,  1.95411e-01, -1.52426e-01,  5.07093e-02,  2.06736e-01, -2.82002e-02,  1.70619e-01, -1.47118e-01,  7.48729e-02, -3.85167e-02,  6.35255e-02, -2.08302e-02,  2.60276e-01,  1.18382e-01,  5.87527e-01,  7.47304e-01, -2.39230e-02,  1.11677e-01, -1.45475e-03, -1.72547e-02,  4.10744e-02, -3.49732e-02,  5.83100e-02, -4.01977e-02,  6.24933e-02,  1.47451e-01,  1.68648e-01,  3.81310e-02,  3.01828e-01, -1.08751e-01,  1.01520e+00,  1.29690e-01,  2.02817e-02, -9.27872e-02,  3.92239e-02, -6.94101e-02,  1.91875e-01,  5.15997e-01,  7.77538e-02,  3.33176e-02,  1.09237e-01, -1.50306e-02},
	{  1.45759e-01,  2.73516e-01,  1.82468e-02, -2.51028e-02,  2.27199e-01, -9.53072e-03,  1.19239e-01,  2.35723e-01,  1.76693e-01,  1.29490e-01, -1.01067e-01, -8.24992e-03, -5.30764e-02, -9.71143e-02,  2.47463e-02,  1.09367e-01, -1.96137e-01,  3.74447e-02,  3.33621e-02, -1.81153e-01,  1.21985e-01,  6.57998e-02,  1.32027e-01,  8.83093e-02,  5.67054e-02, -4.02137e-02, -1.64161e-01, -1.96838e-02, -3.55706e-02,  2.39235e-01,  7.34526e-02,  6.71724e-01, -3.58650e-02,  7.03139e-01,  2.10576e-01,  1.63850e-02,  1.93975e-01, -3.71180e-03, -4.45002e-04, -4.69384e-02,  6.50656e-02,  2.60665e-01, -9.87283e-02,  5.03354e-02,  1.23570e-01,  7.90757e-02, -4.14627e-03,  7.18260e-02, -1.16902e-01,  8.91640e-02, -1.43056e-02, -5.91405e-02, -2.05975e-02,  6.98014e-02, -1.57042e-01,  7.64420e-02, -1.50152e-03,  1.09608e-01, -4.40608e-03,  7.72811e-02,  2.36693e-01, -1.27893e-02,  1.97022e-01, -2.60312e-03, -7.77481e-02,  7.85837e-02, -5.59795e-02, -1.28370e-01,  1.99911e-01, -1.97503e-01,  2.67057e-01,  2.41287e-02, -2.30020e-02, -9.42267e-02,  5.84146e-01, -6.21257e-02, -8.62977e-02, -9.97918e-02,  1.50597e-02,  7.41271e-01,  1.36048e-01, -2.24302e-01, -1.25381e-01, -5.94848e-02, -1.38467e-02,  6.05472e-02,  5.57557e-02, -2.58420e-01,  2.13864e-01,  1.16613e-01,  7.37175e-03,  2.86573e-03, -2.70657e-02, -7.44726e-04,  3.47434e-02, -3.26152e-02,  7.96342e-01,  6.18297e-01, -2.70785e-02, -5.46223e-02, -8.68156e-02,  4.64889e-02,  1.17382e-02,  9.02362e-02, -7.10531e-02,  4.79050e-02,  1.17595e-01,  7.87198e-02,  2.50171e-01, -6.39817e-02,  8.36092e-02, -4.76082e-02, -1.80745e-01, -3.75864e-02,  1.97156e-01, -1.34778e-02,  8.86657e-02,  6.00151e-02,  1.10604e-01, -7.19053e-02,  5.48862e-02,  1.09720e-01,  1.77689e-02,  1.22474e-01, -8.47036e-02,  1.83181e-03,  7.87074e-02,  1.73915e-01,  9.84309e-02,  4.36010e-03,  6.82609e-02,  8.81814e-02,  3.78982e-02,  8.13511e-02,  3.41313e-02,  1.84548e-01,  8.13982e-02, -1.06495e-02,  3.82924e-01, -1.56184e-01,  8.58317e-02,  1.12844e-01, -9.31754e-02, -8.89580e-03},
	{  4.30856e-02,  1.73061e-01, -3.48234e-02,  5.88688e-02,  6.20747e-03, -2.16585e-02, -1.48401e-02, -7.88878e-02,  1.01806e-02, -3.75948e-02,  7.16321e-02,  4.51129e-02, -3.07415e-02, -1.61796e-02,  1.34939e-02,  9.39756e-02,  4.66800e-02, -3.28026e-02, -1.70497e-02,  2.99984e-01,  7.37191e-02,  8.88818e-03, -1.00475e-01, -6.82619e-02,  1.42728e-02, -1.81963e-02,  2.08882e-01, -7.45453e-02,  3.77785e-02,  2.32790e-02, -9.74874e-02,  7.45274e-02,  1.28998e-01,  4.56130e-02,  4.70665e-02, -1.52248e-01,  2.44717e-03, -1.25942e-02,  1.41048e-01, -2.52870e-02,  2.07462e-02,  2.95484e-02,  9.77104e-02,  3.41615e-02, -1.29627e-02, -2.01953e-01,  5.85964e-02,  1.09638e-01,  1.60654e-01, -6.83621e-04, -1.20356e-01, -8.29358e-02,  2.89305e-02, -1.08449e-01, -7.27067e-02, -1.99421e-01,  5.55956e-02,  1.83046e-02,  2.12423e-02,  1.18428e-01, -6.64203e-02, -8.28892e-02,  1.32793e-01,  4.98966e-03,  8.65816e-02,  6.05801e-01,  1.82161e-02,  1.29338e-02,  1.07005e-02, -7.61334e-03, -7.39729e-02,  2.97516e-02,  1.02761e-01,  1.36665e-01,  4.48455e-02,  2.88568e-02, -1.25924e-01,  4.69369e-02,  9.21077e-02, -4.69654e-02,  4.93085e-02,  6.70112e-02,  1.35059e-01, -1.33212e-01,  9.04298e-02,  5.76718e-02, -4.54671e-02,  1.42911e-02,  1.99977e-01, -1.26184e-01, -2.78367e-02, -1.25102e-01, -7.79586e-02,  1.12262e-01, -6.41795e-02, -5.48028e-02, -3.03313e-02, -8.00577e-02,  8.02432e-02,  3.32615e-02,  3.18144e-01, -4.71691e-02, -6.33571e-02, -2.24632e-02,  4.29597e-02,  1.81712e-02,  9.23920e-02, -5.70822e-02, -1.27757e-01, -2.60731e-03, -1.52625e-02,  1.92224e-01, -1.65964e-01,  8.02189e-02,  1.77168e-01, -1.42198e-01,  1.90779e-02, -8.92860e-02,  1.56804e-02, -1.88043e-01,  1.44098e-01,  5.46245e-02, -4.17433e-02,  6.90897e-02,  1.44554e-03,  2.30013e-02,  7.40002e-02,  1.58495e-01, -2.60485e-02,  7.84325e-02, -1.04728e-01,  5.59870e-01, -1.41327e-02,  1.60594e-01, -1.37815e-01, -3.77971e-02,  4.23072e-02, -1.13018e-01, -5.12157e-02, -1.72972e-01, -8.85379e-02, -1.10303e-01,  3.64937e-02,  5.29119e-01},
	{ -7.21021e-02,  1.32588e-01,  8.19290e-02,  1.02499e-01,  1.59159e-01,  7.63025e-02,  1.16953e-01, -1.32739e-01,  1.26131e-01,  6.64992e-03,  3.78476e-02,  1.81652e-01,  4.01553e-03,  1.39342e-01,  1.58481e-02,  5.95541e-02,  5.05610e-01,  1.15078e-01,  3.07682e-01,  7.89216e-02,  1.48030e-01,  7.72901e-03,  1.04422e-01, -1.01034e-01,  3.74782e-02,  8.17139e-02,  2.84360e-03,  2.25579e-01,  4.77274e-02,  7.96809e-02,  7.30118e-02, -1.31297e-01,  1.35924e-01,  5.53915e-02, -6.06488e-02,  8.53360e-02,  7.23011e-03, -3.42951e-03,  1.37046e-01, -1.22358e-01,  2.16458e-02, -9.43567e-02, -1.09883e-01,  5.64897e-02,  9.00060e-02, -2.96660e-02, -1.02497e-02,  1.45463e-01,  9.43327e-02,  6.61955e-04,  2.05970e-02, -1.99227e-02,  3.33687e-02,  1.93570e-02, -2.37016e-02,  9.94254e-02,  6.73974e-02, -2.17034e-01,  1.81724e-01,  2.77411e-01, -5.75693e-02,  8.12687e-02, -2.72760e-02, -6.30318e-02,  2.66563e-02, -4.22407e-02, -2.68357e-02,  7.05798e-03, -7.57787e-02,  4.82889e-02,  9.18843e-02, -6.31844e-02, -1.15676e-01,  1.56251e-01,  2.75033e-02,  6.24569e-02, -3.05939e-03,  1.48483e-01,  1.36143e-01,  2.10035e-01,  5.81673e-02,  1.99115e-01,  2.78160e-01,  3.19374e-02,  5.17901e-02, -2.50776e-01, -4.57370e-02,  1.12478e-01,  7.38639e-01,  3.36429e-02, -2.33208e-02,  1.50086e-01,  9.37071e-01,  3.88865e-02,  1.08060e-01,  5.34547e-02,  1.05141e-01, -1.54647e-02,  1.83172e-02,  3.29016e-02,  5.67767e-02,  8.44324e-02,  5.77897e-02,  9.50767e-02,  1.16566e-01,  1.69262e-01,  3.07172e-01, -2.31207e-02, -1.62376e-01,  9.97714e-02,  9.11758e-02,  3.92211e-02,  3.93748e-02,  8.93741e-02,  7.49595e-02, -5.96420e-02,  9.69789e-02,  2.39050e-02,  1.25953e-01,  7.34454e-02,  2.03679e-02,  1.16614e-01,  3.65667e-01,  1.65813e-01,  3.93351e-01,  8.60576e-02, -1.01945e-01,  1.62415e-01, -7.68683e-02, -6.69715e-02,  7.03155e-01, -3.89951e-02,  1.58878e-01,  5.76741e-02,  5.25452e-02,  5.90373e-04,  1.68420e-01,  8.46788e-02,  1.24924e-02,  1.82586e-02,  2.68873e-01, -3.75115e-02, -3.34743e-02, -1.67649e-01},
	{  4.65700e-02, -1.68698e-02, -1.65381e-01,  6.11204e-02,  1.83161e-01,  8.93527e-01, -6.12324e-02, -6.51848e-02, -1.18331e-01,  1.21502e-01,  2.11892e-02,  1.29319e-01, -5.42063e-02,  1.21780e-01,  5.69570e-01,  1.46572e-02,  8.25529e-02,  1.25043e-01,  1.17602e-01,  1.18081e-01,  1.90579e-01,  1.84326e-01,  8.77113e-02,  2.27532e-02,  1.03995e-01,  6.33693e-01,  1.17250e-02,  1.63022e-01, -7.84243e-02,  8.37836e-02, -1.02691e-01,  3.98991e-02,  1.11188e-01,  6.32095e-02, -1.32715e-01,  2.48863e-01,  1.11830e-01, -9.42561e-02, -6.58592e-02,  5.57055e-02, -2.03579e-02,  2.54758e-01,  2.98493e-02,  1.52784e-01, -1.30528e-01, -8.01355e-02,  2.22846e-02,  2.38206e-01, -1.32235e-01, -2.95906e-02,  3.41696e-02, -4.54740e-03,  1.08661e-01,  4.25225e-03,  7.19114e-02,  2.37944e-01,  3.28039e-01, -8.19437e-02,  3.65431e-02,  2.24297e-01, -3.48041e-02, -5.83909e-02, -1.25781e-01, -5.71836e-03, -2.26296e-02,  1.31194e-01,  8.04385e-02,  3.59662e-02,  6.68896e-02,  2.48287e-01, -1.23804e-01, -8.97089e-02,  1.76083e-01,  9.92798e-02,  6.25386e-03,  1.44148e-01,  2.56695e-02,  3.75458e-01, -7.81696e-02,  1.08437e-01,  2.57807e-01,  1.86254e-01,  1.21565e-01, -8.25014e-02,  1.37643e-01,  8.33512e-01,  8.60744e-02, -4.05534e-02, -4.08018e-01,  3.01665e-01,  1.75042e-01, -1.52775e-02,  2.27522e-01,  1.88189e-01,  2.13204e-02,  9.32348e-02,  1.97789e-01, -7.01728e-03,  1.01801e-02,  9.70350e-02,  2.92852e-02,  1.85377e-01, -7.97894e-02, -3.61664e-04,  3.13893e-01,  8.98741e-01,  1.56644e-01, -7.24989e-02, -1.24591e-01,  1.33604e-01,  1.53587e-01,  1.29104e-01,  4.50617e-02,  4.72687e-01,  2.32139e-03, -1.34831e-01, -3.29643e-03,  1.35980e-01,  5.20593e-01,  4.01834e-01,  1.21893e-01, -3.42387e-02,  4.40600e-01,  3.71676e-02,  2.82467e-01,  5.03864e-02, -4.28019e-02,  9.26467e-02,  2.35877e-01,  1.25376e-01,  2.25199e-01,  1.53065e-01,  1.15183e-01,  4.02643e-02,  1.70066e-01,  2.30468e-03, -2.74323e-01,  1.23171e-01,  4.91012e-02, -6.51124e-02,  2.41224e-01, -5.11777e-02,  5.04194e-02,  5.93690e-02},
	{  2.00732e-02, -2.28671e-02, -1.74377e-02, -8.13693e-03, -1.21874e-01,  1.52081e-01,  2.10802e-02,  9.87674e-02, -1.37578e-02, -8.41559e-02, -3.97658e-02, -3.51933e-02,  9.34098e-02, -3.93993e-02,  4.63232e-03,  1.31178e-01, -1.35082e-01, -8.13345e-02, -2.24549e-02,  4.10882e-03,  1.42833e-01,  1.72175e-02,  1.20547e-01, -4.92161e-02, -1.10642e-01,  2.90767e-02, -4.04585e-02,  1.29855e-01,  1.28715e-01,  2.46542e-01,  5.53281e-02, -1.42479e-02,  1.06553e-01,  1.36485e-02, -3.64316e-02, -2.26892e-02, -6.90420e-02, -1.41420e-02,  2.66983e-01,  7.99961e-02,  7.53371e-02,  1.19160e-01,  5.78392e-02, -3.78858e-02, -8.13872e-02,  6.17984e-03, -1.50864e-01,  2.98939e-01, -5.52314e-02, -9.41373e-02, -2.41369e-02,  1.14824e-01,  1.76786e-02,  6.56315e-02, -7.01726e-02,  3.17626e-03, -7.09079e-02,  5.32029e-02, -3.49583e-03,  1.72770e-01,  7.61521e-02,  6.12128e-02, -4.21434e-03,  1.59765e-01, -7.53900e-02,  8.08635e-04,  1.52251e-01,  8.66913e-01,  1.77020e-01,  1.04585e-01,  1.43530e-01,  1.47620e-01, -5.34363e-02,  1.01738e-01,  6.55911e-02, -3.55611e-02,  4.19395e-02,  1.56413e-01, -5.88134e-02, -4.27558e-03, -9.09338e-03,  9.80262e-02,  8.42731e-02,  5.58858e-02,  7.72610e-01, -1.69783e-02, -7.57859e-02,  1.34251e-02,  1.17661e-01,  8.69611e-02, -3.45742e-02,  2.39240e-02,  9.62392e-02,  6.83234e-02,  3.09959e-01,  1.16903e-01, -5.34879e-02,  8.40402e-02,  1.85940e-02,  8.38810e-02,  2.27012e-01, -1.26194e-02,  6.36222e-02,  4.17836e-02,  2.17532e-02,  9.64032e-02,  1.71313e-01,  3.29052e-02, -7.86995e-02,  3.20094e-01, -2.30729e-03,  2.41619e-02,  4.84290e-02,  1.32787e-01,  5.46959e-02,  1.98878e-01,  6.34004e-02,  1.04539e-01,  4.47468e-02,  1.81992e-01, -1.01513e-01, -1.37487e-01,  1.34755e-01,  6.84052e-02,  7.24819e-02, -2.09443e-01,  9.33607e-02,  5.58973e-02,  3.27394e-01, -2.56405e-02, -1.13213e-01, -3.62217e-02, -1.56567e-02,  6.50152e-02,  1.25535e-01, -2.28759e-01, -1.56998e-01, -8.83271e-02,  4.58894e-02,  6.44252e-03, -7.95319e-03,  3.31617e-02,  1.24191e-01, -5.73040e-02},
	{  1.38799e-02, -5.61412e-02, -1.18911e-01, -3.59600e-02,  1.20519e-01,  1.67975e-01,  3.46339e-02, -6.83730e-02,  9.38911e-01,  1.37411e-02,  5.63930e-02, -2.52831e-02, -7.47893e-02,  3.20354e-02,  4.20677e-01, -1.09517e-01,  2.36606e-02, -6.62201e-02, -1.30378e-02,  1.46870e-01,  7.83403e-02,  2.65361e-01,  5.31043e-02,  1.74573e-02, -6.05026e-03,  1.15191e-02, -2.03754e-01,  2.10420e-01, -1.17455e-01,  1.48365e-01, -8.17841e-02,  5.55311e-03,  1.27864e-01,  3.97043e-02,  2.50556e-02, -1.20943e-01,  2.47686e-01,  7.44908e-03,  5.54481e-04, -1.92695e-02,  1.22760e-01,  5.36860e-02, -1.09113e-02,  5.86491e-02,  1.02430e-01,  2.78426e-02,  8.44526e-02,  2.11579e-01, -5.04545e-02,  9.90673e-02, -1.13653e-01,  8.05460e-02,  1.00576e-01,  7.36061e-02, -8.67260e-02, -1.04165e-01,  1.87449e-01, -9.03119e-02,  7.96423e-02,  3.83860e-02,  6.12550e-02,  2.75141e-02, -2.85803e-02, -1.22941e-01, -7.78076e-02, -1.30361e-02, -4.93863e-02, -1.12748e-01, -1.47993e-02,  1.59170e-01,  3.32723e-02, -5.62792e-02, -1.18707e-02, -5.41964e-03,  6.73681e-03,  8.64979e-02,  3.11154e-02,  1.87817e-01, -1.65417e-01,  8.38280e-02,  2.28059e-02,  2.63812e-01, -2.71842e-02,  4.36791e-02,  6.09069e-02, -4.82256e-02,  3.80044e-02, -1.10373e-01, -1.53125e-01,  6.39828e-03, -3.26857e-02,  1.14018e-01, -2.40494e-02, -1.27573e-01,  2.95209e-02, -4.04403e-02,  6.54315e-02, -5.09507e-02,  4.79190e-02,  4.12953e-02,  3.72681e-02,  1.39814e-01,  6.48121e-02,  2.78375e-02,  1.76182e-01,  3.73441e-02, -6.19912e-02, -2.21196e-02,  6.80861e-02,  2.23011e-01, -8.54943e-02, -1.36770e-02,  1.08777e-01, -6.91503e-02, -1.44195e-01, -8.97070e-02, -2.08749e-02, -5.62811e-03,  1.11586e-01,  1.63072e-02,  4.15078e-02, -6.63886e-02,  4.95844e-02, -1.74203e-01, -4.91981e-02,  2.97573e-03, -6.10634e-02, -1.05774e-01,  1.63388e-01,  3.17336e-02, -4.23024e-02,  1.15741e-01, -4.60727e-02, -1.22035e-01, -2.01426e-02,  1.25490e-01,  5.95147e-02,  3.90328e-03,  1.04042e-01,  3.88449e-03, -1.61890e-01,  3.26274e-02, -5.26858e-02,  2.97987e-02},
	{  4.62669e-02,  9.46501e-02,  2.18225e-02,  1.16043e-01,  1.53060e-01, -1.11327e-01,  2.68747e-03,  4.59721e-02,  6.99106e-04,  5.93524e-02,  1.93022e-01,  2.05282e-01, -9.95457e-02,  4.97411e-02, -4.01016e-02,  7.39505e-02, -1.35314e-02,  7.46853e-02, -9.61347e-02,  2.37856e-02, -4.95548e-02,  9.23307e-02,  2.02194e-01,  2.94269e-01,  1.10932e-01,  7.18187e-02, -6.62577e-03,  6.18229e-02, -1.97228e-01,  6.57297e-02, -1.03206e-01,  1.10003e-03,  1.55403e-01,  1.11222e-01,  8.20200e-02,  1.20776e-01, -3.47722e-02, -1.09277e-02, -1.17202e-01,  3.87691e-02, -1.08975e-01,  3.16872e-02,  1.89439e-02,  1.97802e-01, -2.11572e-02, -1.13718e-01, -2.24694e-02, -3.06065e-02,  1.70234e-02,  1.05247e-01,  1.03520e-02,  1.83741e-01, -1.20869e-01,  7.52741e-02,  5.99364e-02, -4.05075e-02, -8.03281e-02, -1.49191e-02,  1.25987e-01,  9.28821e-02,  7.17891e-03,  7.14155e-01, -1.51358e-01,  3.85825e-02,  1.37950e-01,  5.24908e-03,  1.38656e-01, -6.35530e-02,  2.03365e-01, -1.10556e-01,  1.01476e-01, -3.18025e-02, -7.59678e-02,  1.69726e-01, -3.49614e-02, -3.69348e-03, -2.17451e-02,  7.55651e-02,  1.98459e-02,  3.90923e-02, -1.12381e-01,  3.94083e-01,  3.22740e-02,  8.57337e-02,  5.56235e-02,  1.80616e-01,  1.04832e-01, -1.64004e-01,  1.06608e-01,  2.37682e-01,  1.76496e-01,  2.18582e-01,  3.47038e-02,  5.38011e-01,  8.09476e-02, -1.65875e-02,  2.05597e-01,  3.14605e-02, -3.38236e-02,  2.74894e-03,  9.18384e-02,  7.03342e-01,  3.82082e-01,  9.56844e-02,  6.58534e-02,  2.77063e-02, -9.13404e-02, -8.78100e-02,  1.40501e-01, -6.86030e-02, -6.34948e-03, -4.93910e-02,  1.81366e-02,  1.95154e-01,  2.22761e-01, -1.17098e-01,  1.85069e-01,  4.85981e-02, -7.91752e-02, -5.73594e-02,  5.82851e-02,  6.66466e-01,  3.65387e-01, -9.53399e-02, -1.26008e-01,  5.28407e-02,  7.16079e-02, -5.86905e-02,  8.06776e-02,  3.46323e-02, -6.61160e-02,  1.03632e-02,  6.80856e-02,  3.90835e-02, -1.50684e-01,  8.25518e-02,  8.26507e-02,  1.42916e-02,  2.24342e-01,  3.53341e-02,  6.70365e-02, -4.01752e-04, -1.60900e-01, -3.49790e-02},
	{  1.81853e-01, -1.78667e-01, -1.70746e-02,  8.11198e-02,  1.90110e-01,  2.60110e-01,  4.68334e-02, -1.54560e-03, -9.32329e-02, -7.44960e-02, -6.58634e-02, -1.37896e-01,  1.48460e-02, -1.26985e-02, -1.09811e-02,  3.65506e-02, -5.78476e-02, -4.72873e-02, -1.76972e-01,  7.83462e-02,  2.18545e-02, -1.33396e-01,  1.32421e-01, -2.84756e-02,  4.66556e-01,  9.66691e-02, -5.22546e-02, -2.30499e-02,  3.98736e-02,  1.88054e-01,  2.98376e-02,  7.23537e-02, -4.16626e-02,  3.26556e-02,  6.17795e-03, -3.26958e-02,  5.75905e-01, -7.02863e-02,  1.18769e-01, -8.32145e-02,  5.83899e-02, -2.22170e-02, -1.46777e-01, -1.70588e-01, -3.31629e-02,  1.67575e-02, -4.95357e-02, -5.61737e-02,  3.13889e-02,  1.15037e-01, -2.69644e-02, -7.44284e-02,  4.68547e-01, -3.16264e-02,  5.10918e-01,  6.16082e-01,  3.89201e-02, -2.44908e-02,  9.47381e-02,  1.99664e-01,  1.52657e-01, -2.03283e-01,  4.20202e-02, -4.25591e-02,  6.22504e-01,  1.48248e-02, -6.03531e-02, -6.80894e-02,  1.66051e-01, -2.02410e-02, -1.26191e-01, -1.31335e-01, -7.05859e-02, -2.34692e-02,  5.31892e-02, -9.20673e-02,  8.04903e-02,  2.04298e-02,  1.53937e-01, -8.77948e-02,  1.69403e-01, -7.63137e-02, -1.87722e-02,  1.08554e-01, -5.61543e-02, -1.27508e-01,  1.22263e-01,  1.21538e-01,  2.14094e-01,  1.76775e-01, -1.87796e-01, -6.48539e-02,  2.80561e-01,  3.59141e-02, -2.57718e-01, -9.92255e-02, -1.00897e-01, -1.00127e-01, -3.84478e-02,  1.15519e-01, -1.05649e-01,  7.51252e-02, -7.88806e-02,  1.34890e-02, -1.01735e-01,  2.03726e-01, -2.14948e-01, -5.54735e-02,  2.11401e-02,  7.59390e-03, -1.24700e-01,  1.17231e-01, -1.09771e-02,  1.93783e-02,  3.86479e-01,  3.75377e-02,  1.73579e-01,  1.26978e-01, -1.14180e-01,  5.95596e-02, -9.32066e-02, -3.89199e-02,  1.80956e-01,  5.08929e-02,  1.43995e-04, -3.27113e-02,  1.39262e-01,  1.34494e-01, -5.38929e-02,  1.27956e-01, -1.85515e-01,  1.47437e-01,  4.65510e-02,  1.03892e-01, -1.26262e-01,  5.93421e-02, -8.17930e-02,  1.76299e-01,  9.19095e-02, -1.15215e-03,  1.34975e-01,  3.65783e-02, -8.60785e-02,  8.75915e-03},
	{  6.82489e-02,  1.56871e-01,  3.12884e-02,  2.36456e-01, -4.21937e-02, -1.31149e-02, -5.63448e-02,  9.58729e-02, -3.09779e-02,  2.06247e-02,  9.99433e-02,  6.10414e-02,  1.56832e-02,  3.41630e-03,  4.77782e-02,  1.82206e-01,  2.04066e-02, -1.16436e-01,  1.61395e-01,  1.06672e-01,  1.75710e-01,  5.09997e-03,  2.22476e-02, -4.97334e-02,  1.36493e-01, -3.86136e-02,  2.25507e-02, -7.77896e-02,  1.94959e-02,  1.58015e-01, -6.36062e-02,  2.54488e-02, -2.53909e-02,  1.23856e-01,  3.58494e-03, -8.77707e-03, -4.79526e-04,  1.56005e-01, -1.58160e-01,  1.29803e-01,  1.13879e-01,  3.58775e-01, -1.25583e-01, -7.43469e-02, -2.04521e-01, -3.67489e-02,  3.49552e-02,  1.04002e-01,  1.77736e-01,  9.81248e-02,  8.63836e-02,  1.06116e+00,  1.09036e-01,  3.17464e-01,  1.91824e-01,  3.66423e-02, -1.27983e-02,  1.36686e-01,  1.71488e-01,  1.74030e-01,  5.61379e-02,  1.73676e-01,  1.32911e-01,  5.13905e-02, -3.80547e-02,  1.50310e-02, -2.89415e-03,  5.79832e-02,  1.83041e-01,  2.43602e-01,  4.94012e-02,  1.47311e-01, -2.35064e-02,  3.14907e-03,  9.12377e-03, -7.37983e-02,  8.10802e-02, -8.84571e-02,  1.49519e-01, -4.41693e-02,  2.58720e-01,  1.33155e-01,  2.67451e-03, -7.27355e-02, -4.73785e-02,  9.44195e-02,  6.10090e-03, -1.80277e-01, -1.26924e-02, -1.76258e-03,  6.54575e-01,  7.19636e-02,  1.59717e-01,  1.42631e-01, -6.77127e-02,  2.31243e-01, -4.13112e-03, -7.17691e-02, -5.96247e-03, -8.33897e-02,  8.83036e-02,  2.18079e-01,  1.25822e-01,  2.94336e-02,  7.94936e-02,  1.23975e-02,  1.28535e-01,  1.59102e-01, -4.21335e-02, -1.61213e-02, -2.64552e-02,  2.63225e-01, -2.61092e-04,  8.42714e-02,  9.78735e-02,  1.21069e-01,  1.19341e-01, -5.49175e-02,  3.74294e-02,  1.03969e-01,  2.42053e-02,  1.17201e-01,  2.89632e-01, -1.08614e-01, -6.65665e-02,  8.14918e-02,  1.30694e-01,  1.44840e-01, -1.03920e-01,  1.20073e-01,  1.18113e-01, -1.82431e-02, -1.37729e-01,  1.64150e-01,  1.48996e-01,  1.37925e-01,  2.68709e-01,  4.42081e-02,  3.71367e-01,  7.46135e-02,  1.89002e-01,  1.84812e-02,  2.04266e-03,  2.27856e-01},
	{  1.69826e-01, -3.83889e-02,  1.34433e-01, -7.06700e-02,  1.91900e-01, -5.98192e-02,  9.45274e-02, -7.45032e-02,  1.37232e-01,  5.82595e-02, -8.71627e-02,  8.11563e-01,  1.26187e-01, -5.69042e-02, -1.14102e-01,  1.50906e-01, -1.03699e-01,  1.21012e-01, -5.58864e-02, -7.51405e-02, -3.66881e-02, -1.30127e-01,  2.07245e-02,  1.16077e-01,  1.36581e-01,  1.20735e-01,  3.40911e-01, -5.35823e-02,  8.83521e-02,  5.11272e-02, -4.22283e-02,  6.93567e-02, -1.79172e-01,  3.29552e-02,  1.17453e-01, -1.32917e-01,  6.72806e-02,  1.33172e-01, -1.03018e-01,  1.12420e-01,  1.94508e-01, -1.22830e-02, -8.81386e-02, -1.24613e-01,  2.88402e-03,  8.59208e-02, -1.04118e-01,  2.08433e-01,  4.51126e-02,  8.76432e-02,  8.92388e-02, -4.21587e-02,  1.13443e-01, -1.20781e-01,  1.74922e-01,  1.17738e-02,  2.38772e-02,  1.53417e-01,  2.61129e-02,  6.64945e-02, -1.08926e-01,  4.33607e-02,  1.20823e-01,  9.86642e-02,  2.08080e-02, -3.36279e-02,  1.04030e-01, -4.01786e-02,  1.26576e-01,  4.07958e-01, -1.12489e-01,  1.20232e-01,  5.55793e-02, -1.53800e-01,  5.46191e-02, -1.07607e-01,  1.30308e-01, -3.47501e-04, -2.84221e-02,  1.51559e-01,  2.57004e-01,  1.03699e-01,  4.80730e-01, -1.46527e-01,  3.29681e-02,  6.70101e-02, -9.89232e-02,  1.58850e-01,  1.47206e-01, -1.26438e-01,  3.88543e-01,  2.34780e-02, -3.94762e-02,  1.56513e-01,  3.18480e-02,  4.17729e-01,  7.24904e-02,  1.62661e-01,  9.49620e-03,  9.90312e-01, -1.04108e-01, -1.37732e-01,  1.10937e-01, -1.16841e-02,  7.17880e-02, -9.22064e-02,  1.50373e-03, -4.05865e-02, -3.69350e-02,  5.51881e-02,  6.82801e-02,  1.45069e-01,  1.18529e-01, -4.97805e-02,  1.04749e-01,  2.18802e-02, -9.40184e-02,  1.58853e-01,  1.13906e-01, -1.27810e-01,  4.14653e-02, -2.51878e-02,  1.38303e-01, -1.15903e-01,  1.99325e-02, -5.36266e-02,  5.33456e-02, -6.50549e-03,  4.11028e-03,  1.05282e-01, -7.13425e-02, -5.48150e-02,  8.80719e-02,  1.56127e-01, -5.98082e-03, -6.14975e-03,  2.46065e-01,  5.66238e-02, -1.46263e-01,  2.02563e-01,  2.76773e-01,  1.36735e-03,  1.07730e-01,  1.22628e-01},
	{  1.34432e-01,  7.75175e-02,  4.63537e-02,  7.54612e-02,  6.21883e-01, -4.86842e-02, -3.35244e-02, -6.70962e-03, -2.14564e-02,  3.33688e-02,  6.20721e-02,  1.35157e-01, -1.08126e-01, -2.29140e-02, -7.67044e-02,  1.40181e-01, -2.51903e-02,  3.24014e-03, -6.29262e-02, -6.27625e-02, -4.93091e-02,  1.89242e-02, -1.65769e-01,  2.31998e-01, -5.96174e-02,  1.55211e-02, -1.45422e-01, -1.27237e-01, -8.03645e-02,  2.30861e-03,  1.22661e-02, -3.04869e-02,  1.05384e-01,  4.51567e-02, -8.44708e-02, -5.22510e-02, -1.97837e-02,  2.81491e-02,  1.41469e-01,  4.51431e-02, -3.18631e-02, -1.65396e-01, -1.08992e-01,  1.10561e-02,  9.94808e-02,  1.13607e-03, -1.47514e-02,  1.57776e-03,  2.47838e-02,  3.50621e-02,  1.04838e-01,  2.81346e-02, -9.88064e-02, -4.56045e-02, -2.54367e-02,  8.87069e-02,  9.44793e-03,  2.62367e-01,  8.45160e-04, -1.73469e-01,  1.24385e-01,  5.08832e-02, -5.14281e-02, -2.90391e-02, -3.13868e-03, -9.43812e-02,  5.42602e-01,  1.12739e-03, -8.32591e-03, -1.90480e-01,  7.03798e-02,  1.23846e-01, -9.50190e-02,  1.92639e-02,  3.47806e-02,  8.35810e-02, -1.05962e-01, -7.72353e-02, -5.92874e-02, -1.64364e-02, -9.66326e-02,  3.22286e-02, -6.21069e-02, -4.11666e-02,  2.20341e-01, -1.51317e-01, -3.21493e-02,  4.75444e-02, -1.83887e-02,  4.89179e-02, -3.46222e-02, -1.73686e-01,  2.64671e-02, -4.69872e-02, -4.87333e-02, -7.26801e-02, -1.05628e-01,  2.52458e-02,  1.62949e-02,  9.37278e-03, -1.04054e-01, -1.73656e-01, -8.87356e-02, -1.58456e-01, -3.10240e-02,  1.29916e-02,  5.79273e-01, -1.48864e-02,  9.88011e-02, -1.07354e-01, -2.09777e-02, -7.38650e-02,  2.05549e-01,  2.26284e-02, -8.91688e-02, -3.98151e-02,  3.25433e-01, -7.52707e-02,  1.37178e-01, -1.40486e-01,  5.31167e-01, -1.00995e-01,  6.92629e-03, -9.73651e-03,  3.85700e-03,  1.13820e-01, -1.26271e-02, -2.80533e-01, -7.03202e-02, -2.04221e-01, -8.31785e-03, -1.26362e-01,  6.85930e-02,  6.36085e-02, -9.61177e-02,  1.25767e-01, -1.73780e-02, -6.20678e-02,  5.24938e-02,  8.52408e-03, -2.45923e-01, -7.73979e-02, -3.85838e-02,  7.52179e-02},
	{ -2.70689e-02,  2.03869e-03, -9.06289e-02,  1.06782e-01, -8.94259e-03, -7.46083e-02, -1.58004e-01,  7.83795e-02,  1.78677e-02, -3.02177e-02,  1.42289e-01,  1.20385e-01, -4.67676e-02, -6.79646e-02, -1.27162e-01,  8.94042e-02, -4.97124e-02,  1.36165e-02, -1.99277e-01, -1.02114e-01, -3.59094e-02, -2.27986e-02,  2.05283e-01,  1.32095e-01,  1.96875e-02, -4.17371e-02,  1.15577e-03, -7.44213e-02,  4.79851e-02,  1.39027e-01,  2.81366e-02,  2.09055e-01,  1.19839e-01,  1.39718e-01,  7.80508e-02,  1.26054e-02, -7.43941e-02,  8.74482e-02, -4.53620e-03, -1.71653e-02, -6.25479e-02,  5.82131e-02,  3.35238e-02,  1.67789e-01,  6.71123e-01,  2.23212e-01,  7.21388e-03,  1.23446e-01,  3.64401e-03, -1.06600e-01,  1.20922e-01,  8.53695e-02,  4.23098e-04,  3.25833e-02,  7.02688e-02,  1.49519e-02,  6.74821e-02,  5.36923e-01,  1.86868e-02, -7.51258e-02, -7.06110e-02,  2.17029e-01, -8.11789e-02, -2.99620e-02, -3.43723e-03, -1.53774e-01, -1.35145e-01,  6.21050e-02,  1.68323e-01,  1.18035e-01, -7.37301e-02,  2.59174e-02, -1.72056e-02,  1.27805e-01, -7.35746e-02,  7.84654e-02,  1.47379e-01, -6.19754e-02,  6.78022e-02,  6.97142e-02, -1.12419e-01,  1.54172e-01, -1.78057e-02,  1.25675e-02,  1.26212e-01,  1.75237e-01,  1.03154e-01,  6.72662e-02, -2.61018e-02,  3.21999e-01,  8.20498e-02,  1.49709e-01, -5.86238e-02,  7.16701e-02,  2.49466e-02,  1.25733e-01,  6.82217e-02, -4.69628e-02, -1.21467e-01,  7.28635e-02,  2.27508e-01, -1.12629e-01,  3.73999e-01,  1.46223e-01, -1.01873e-01,  4.49590e-02, -7.91114e-02,  8.35253e-02,  5.09032e-02, -5.32930e-02, -1.18776e-02,  1.54501e-02,  1.39394e-02,  1.20770e-01,  4.44563e-02, -2.50082e-03,  1.19981e-01,  1.29239e-01,  5.11288e-02,  6.01424e-02,  3.07068e-01, -1.38268e-01,  1.91577e-01,  1.66013e-02, -2.02446e-03,  7.72728e-03, -1.15261e-01,  1.39282e-02,  8.20433e-02,  8.21825e-02, -1.57595e-01,  3.23472e-02, -6.93414e-02,  9.82417e-02,  7.58377e-01, -4.03587e-02,  7.06485e-02,  2.24135e-02,  4.15875e-02,  5.69275e-02, -4.54487e-02, -2.60545e-02, -2.22042e-01,  1.95847e-01},
	{  9.74826e-02, -5.53151e-02, -8.90086e-02,  5.55781e-02,  1.42073e-01, -2.30653e-02, -2.18276e-02, -1.29163e-02,  7.88662e-02,  3.36045e-02,  1.25861e-01, -1.45429e-02, -2.93893e-02,  7.26410e-02, -1.21319e-01,  4.79635e-02,  4.01347e-01, -2.41742e-02,  2.23462e-01, -5.30909e-02, -2.58310e-02,  1.42863e-01,  1.72222e-01,  1.27096e-02,  2.94229e-02,  1.33754e-02,  1.71979e-01,  4.41349e-02,  6.25810e-01,  2.14165e-02,  5.96501e-02, -3.00767e-02,  1.32191e-01,  1.22537e-02,  1.04727e-02, -1.66537e-02,  3.70606e-02,  9.49504e-02, -2.19751e-01, -1.72688e-02,  1.80110e-02,  1.41857e-01,  1.28474e-01,  6.45915e-02,  2.58129e-01,  1.01829e-01,  1.41329e-01,  7.54214e-02, -3.99565e-03, -5.27094e-02,  2.34180e-01, -5.98052e-03,  7.30925e-02, -4.71163e-03, -7.05812e-02,  7.72972e-02,  2.12263e-01, -2.89416e-01,  1.32757e-01,  1.89266e-01,  2.75804e-02, -8.33320e-02, -5.26461e-02,  4.34917e-02,  1.94361e-01,  2.21784e-01,  1.36643e-01,  5.70361e-02,  5.78252e-03,  2.48738e-01,  9.64905e-02, -1.54413e-02, -3.02594e-02,  1.17634e-01,  2.44157e-02,  6.09608e-02, -1.07249e-01,  1.42453e-01, -4.72214e-02,  1.01989e-01,  7.01376e-02,  2.50971e-01,  2.31952e-01,  2.36692e-01,  2.22853e-01, -1.06704e-01,  4.81240e-02, -1.56514e-01,  2.12445e-01,  1.72131e-01, -2.29891e-02, -4.55201e-02, -8.09244e-02,  1.55224e-02,  1.17511e-01,  1.05808e-01,  3.19827e-02,  1.34404e-01,  6.08927e-02,  1.44458e-01,  9.50927e-02, -5.06762e-02,  2.71752e-02,  3.35629e-01,  3.01196e-01, -1.44121e-01,  1.51821e-01,  7.14277e-02,  1.02429e+00, -1.29994e-02,  1.09795e-02, -2.01702e-03,  1.39273e-02,  3.51820e-01,  2.52658e-01,  1.97374e-02, -1.03955e-01,  5.70678e-02,  5.04310e-02,  4.42695e-01, -6.08191e-02,  3.82426e-02,  3.08573e-01, -4.87434e-02,  1.60151e-01,  5.62560e-02, -4.60913e-02,  1.21867e-01,  6.90444e-02,  1.51765e-01,  1.90513e-01,  9.87273e-02, -3.53160e-02, -2.07053e-02, -3.02092e-03, -1.18037e-02,  9.65427e-02,  1.47390e-01, -3.36656e-02,  9.86539e-02,  3.77748e-01,  9.27236e-02,  2.97819e-03,  1.52157e-01},
	{  5.31910e-01, -1.00303e+00, -4.05628e-01,  2.05279e-01, -7.58343e-01, -7.88559e-01, -3.16214e-01, -2.39616e-01, -1.54042e+00, -7.56522e-01, -5.89726e-01, -7.09123e-01, -4.29887e-01, -9.25202e-01, -4.19105e-01,  4.74620e-01, -4.59396e-01, -1.13287e+00, -3.15136e-01, -5.68003e-01,  2.63348e-01, -8.52575e-01, -3.89900e-01, -6.88404e-01, -5.80375e-01, -4.89595e-02, -7.14767e-01, -1.10323e+00, -4.15844e-01,  5.23103e-01, -1.26792e-01, -2.81732e-01, -7.34018e-01, -7.89459e-01, -3.51752e-01, -4.21589e-01, -4.35864e-01, -1.63079e-02, -4.54836e-01, -2.60117e-01, -6.89091e-01, -1.53356e-01, -7.24508e-01, -8.73006e-01, -9.72627e-01, -5.27123e-01, -5.09199e-01,  3.96426e-01, -2.90434e-01, -2.53431e-01, -6.98566e-01, -8.13998e-01, -2.84082e-01, -2.33063e-01, -3.74270e-01, -5.80200e-01, -7.37216e-01, -9.11633e-01, -8.65552e-01,  5.33413e-01, -2.20425e-01, -5.72516e-01, -2.60993e-01, -3.09067e-01, -7.09992e-01, -1.11806e+00, -9.69496e-01, -5.39991e-01,  6.48177e-01,  3.20752e-01, -8.33907e-02, -3.45281e-01, -9.20578e-01, -6.32828e-01, -2.70777e-01, -9.94553e-01, -4.20447e-01, -2.86792e-01, -2.93589e-01, -9.27745e-01,  1.60672e-01,  4.48602e-01, -7.64389e-01, -6.78655e-02, -3.33223e-01, -6.50112e-01, -5.89327e-01, -1.45115e+00, -2.70942e-01, -1.92396e-01, -8.85225e-02, -2.16834e-01, -2.57431e-01, -3.45722e-01, -6.06424e-01, -1.33259e-01, -6.17052e-01, -3.71477e-01, -3.03987e-01, -5.05162e-01, -1.05934e+00, -1.70741e+00, -2.30083e-01, -5.24464e-01, -7.64842e-01, -6.71402e-01, -6.68186e-01, -1.99693e-01, -1.05689e+00, -5.73901e-01, -3.18133e-01, -3.11723e-02, -7.02895e-01, -2.52097e-01,  3.25675e-01, -3.53477e-01,  1.44262e-02, -3.39464e-01, -5.50557e-01, -3.09076e-01, -2.75742e-01, -8.83137e-01,  9.11292e-01, -1.58557e+00, -3.24281e-01, -1.55125e+00, -4.10276e-01,  5.84900e-01, -4.07681e-01, -5.31074e-01, -8.69653e-01, -3.80363e-01, -8.97273e-01,  4.79307e-01, -7.67404e-01, -1.11546e+00, -8.58194e-01, -1.27820e+00,  4.40605e-01, -4.40583e-01,  3.44123e-01, -2.50331e-01, -2.82663e-01, -9.92521e-01}
};
float w2[145][1]=
{
	{ -4.17573e-02},
	{  1.29310e-01},
	{ -1.43406e-02},
	{ -8.69603e-03},
	{ -5.23345e-02},
	{  3.95865e-02},
	{  5.53797e-02},
	{  2.12719e-02},
	{ -3.84832e-02},
	{  1.12347e-01},
	{ -1.10225e-02},
	{  1.27965e-01},
	{ -9.56663e-02},
	{ -1.27954e-02},
	{  7.85588e-02},
	{ -4.75173e-02},
	{  6.04406e-02},
	{ -1.39967e-02},
	{  4.35193e-03},
	{  5.23705e-02},
	{  1.19087e-01},
	{ -2.57865e-02},
	{ -1.68319e-02},
	{  4.89064e-02},
	{ -6.62842e-02},
	{  1.66744e-02},
	{  5.40779e-02},
	{ -1.56518e-02},
	{  5.67347e-02},
	{  8.37281e-02},
	{  2.47200e-02},
	{  5.63043e-02},
	{  1.16489e-01},
	{  2.15842e-02},
	{  1.46880e-01},
	{  9.85027e-02},
	{  5.48441e-02},
	{  8.13796e-02},
	{ -3.17017e-03},
	{  1.21109e-01},
	{  1.22488e-02},
	{ -1.06448e-01},
	{  4.30363e-02},
	{  7.82138e-02},
	{  6.55236e-02},
	{  1.16332e-01},
	{ -4.23942e-02},
	{  3.64713e-02},
	{  1.36878e-01},
	{ -3.63992e-03},
	{  1.29819e-01},
	{  7.23347e-02},
	{  1.07125e-02},
	{  8.35452e-02},
	{  4.74575e-02},
	{  6.97389e-02},
	{  2.73042e-02},
	{  2.35946e-02},
	{ -1.37549e-02},
	{  5.85609e-02},
	{ -2.50940e-02},
	{ -2.51402e-02},
	{  1.04120e-01},
	{  1.34327e-01},
	{  1.21642e-01},
	{  2.67676e-04},
	{  3.85177e-02},
	{  7.83537e-02},
	{ -1.25549e-01},
	{  2.41043e-03},
	{  1.72217e-01},
	{ -4.56495e-02},
	{  8.68152e-02},
	{ -7.05196e-02},
	{  4.50725e-02},
	{  8.27601e-03},
	{  6.64520e-02},
	{ -8.73342e-02},
	{  3.71415e-02},
	{  5.57172e-02},
	{ -3.05973e-02},
	{ -5.33768e-02},
	{ -7.24341e-03},
	{ -1.27326e-03},
	{ -6.42967e-02},
	{  1.62731e-01},
	{  5.27930e-02},
	{  1.23189e-01},
	{ -3.35246e-02},
	{ -5.25142e-03},
	{ -1.74191e-03},
	{ -4.83309e-02},
	{ -8.52036e-03},
	{ -7.71553e-02},
	{  6.94682e-02},
	{  5.78426e-02},
	{ -1.38152e-02},
	{  1.01297e-03},
	{  1.37840e-02},
	{  6.28885e-02},
	{  9.72365e-02},
	{  1.56692e-02},
	{  8.36253e-02},
	{  5.77232e-02},
	{  9.72372e-02},
	{ -1.30196e-02},
	{  4.23485e-02},
	{ -1.15486e-02},
	{  6.87755e-02},
	{  5.23214e-03},
	{  2.64722e-02},
	{  1.62723e-02},
	{  7.92613e-02},
	{ -7.29165e-02},
	{ -7.01767e-02},
	{  3.45283e-02},
	{  4.15416e-03},
	{ -1.00442e-01},
	{  6.87585e-02},
	{ -1.71716e-02},
	{  2.40513e-02},
	{  9.27477e-02},
	{  5.40264e-02},
	{  2.03966e-01},
	{  1.20924e-01},
	{  1.52439e-01},
	{  9.40798e-04},
	{ -7.87638e-03},
	{ -5.72204e-02},
	{ -2.79358e-03},
	{  4.26743e-02},
	{ -1.10215e-02},
	{  1.84749e-01},
	{  4.19155e-02},
	{  3.04901e-02},
	{  1.63553e-01},
	{  7.85010e-02},
	{  1.58852e-02},
	{ -5.33983e-02},
	{  1.65424e-02},
	{ -1.65392e-02},
	{ -3.35096e-03},
	{ -4.00681e-02},
	{  5.64194e-02},
	{ -6.29156e-01}
};

#endif
